tree
version=v4
num_class=1
num_tree_per_iteration=1
label_index=0
max_feature_idx=1535
objective=regression
feature_names=Column_0 Column_1 Column_2 Column_3 Column_4 Column_5 Column_6 Column_7 Column_8 Column_9 Column_10 Column_11 Column_12 Column_13 Column_14 Column_15 Column_16 Column_17 Column_18 Column_19 Column_20 Column_21 Column_22 Column_23 Column_24 Column_25 Column_26 Column_27 Column_28 Column_29 Column_30 Column_31 Column_32 Column_33 Column_34 Column_35 Column_36 Column_37 Column_38 Column_39 Column_40 Column_41 Column_42 Column_43 Column_44 Column_45 Column_46 Column_47 Column_48 Column_49 Column_50 Column_51 Column_52 Column_53 Column_54 Column_55 Column_56 Column_57 Column_58 Column_59 Column_60 Column_61 Column_62 Column_63 Column_64 Column_65 Column_66 Column_67 Column_68 Column_69 Column_70 Column_71 Column_72 Column_73 Column_74 Column_75 Column_76 Column_77 Column_78 Column_79 Column_80 Column_81 Column_82 Column_83 Column_84 Column_85 Column_86 Column_87 Column_88 Column_89 Column_90 Column_91 Column_92 Column_93 Column_94 Column_95 Column_96 Column_97 Column_98 Column_99 Column_100 Column_101 Column_102 Column_103 Column_104 Column_105 Column_106 Column_107 Column_108 Column_109 Column_110 Column_111 Column_112 Column_113 Column_114 Column_115 Column_116 Column_117 Column_118 Column_119 Column_120 Column_121 Column_122 Column_123 Column_124 Column_125 Column_126 Column_127 Column_128 Column_129 Column_130 Column_131 Column_132 Column_133 Column_134 Column_135 Column_136 Column_137 Column_138 Column_139 Column_140 Column_141 Column_142 Column_143 Column_144 Column_145 Column_146 Column_147 Column_148 Column_149 Column_150 Column_151 Column_152 Column_153 Column_154 Column_155 Column_156 Column_157 Column_158 Column_159 Column_160 Column_161 Column_162 Column_163 Column_164 Column_165 Column_166 Column_167 Column_168 Column_169 Column_170 Column_171 Column_172 Column_173 Column_174 Column_175 Column_176 Column_177 Column_178 Column_179 Column_180 Column_181 Column_182 Column_183 Column_184 Column_185 Column_186 Column_187 Column_188 Column_189 Column_190 Column_191 Column_192 Column_193 Column_194 Column_195 Column_196 Column_197 Column_198 Column_199 Column_200 Column_201 Column_202 Column_203 Column_204 Column_205 Column_206 Column_207 Column_208 Column_209 Column_210 Column_211 Column_212 Column_213 Column_214 Column_215 Column_216 Column_217 Column_218 Column_219 Column_220 Column_221 Column_222 Column_223 Column_224 Column_225 Column_226 Column_227 Column_228 Column_229 Column_230 Column_231 Column_232 Column_233 Column_234 Column_235 Column_236 Column_237 Column_238 Column_239 Column_240 Column_241 Column_242 Column_243 Column_244 Column_245 Column_246 Column_247 Column_248 Column_249 Column_250 Column_251 Column_252 Column_253 Column_254 Column_255 Column_256 Column_257 Column_258 Column_259 Column_260 Column_261 Column_262 Column_263 Column_264 Column_265 Column_266 Column_267 Column_268 Column_269 Column_270 Column_271 Column_272 Column_273 Column_274 Column_275 Column_276 Column_277 Column_278 Column_279 Column_280 Column_281 Column_282 Column_283 Column_284 Column_285 Column_286 Column_287 Column_288 Column_289 Column_290 Column_291 Column_292 Column_293 Column_294 Column_295 Column_296 Column_297 Column_298 Column_299 Column_300 Column_301 Column_302 Column_303 Column_304 Column_305 Column_306 Column_307 Column_308 Column_309 Column_310 Column_311 Column_312 Column_313 Column_314 Column_315 Column_316 Column_317 Column_318 Column_319 Column_320 Column_321 Column_322 Column_323 Column_324 Column_325 Column_326 Column_327 Column_328 Column_329 Column_330 Column_331 Column_332 Column_333 Column_334 Column_335 Column_336 Column_337 Column_338 Column_339 Column_340 Column_341 Column_342 Column_343 Column_344 Column_345 Column_346 Column_347 Column_348 Column_349 Column_350 Column_351 Column_352 Column_353 Column_354 Column_355 Column_356 Column_357 Column_358 Column_359 Column_360 Column_361 Column_362 Column_363 Column_364 Column_365 Column_366 Column_367 Column_368 Column_369 Column_370 Column_371 Column_372 Column_373 Column_374 Column_375 Column_376 Column_377 Column_378 Column_379 Column_380 Column_381 Column_382 Column_383 Column_384 Column_385 Column_386 Column_387 Column_388 Column_389 Column_390 Column_391 Column_392 Column_393 Column_394 Column_395 Column_396 Column_397 Column_398 Column_399 Column_400 Column_401 Column_402 Column_403 Column_404 Column_405 Column_406 Column_407 Column_408 Column_409 Column_410 Column_411 Column_412 Column_413 Column_414 Column_415 Column_416 Column_417 Column_418 Column_419 Column_420 Column_421 Column_422 Column_423 Column_424 Column_425 Column_426 Column_427 Column_428 Column_429 Column_430 Column_431 Column_432 Column_433 Column_434 Column_435 Column_436 Column_437 Column_438 Column_439 Column_440 Column_441 Column_442 Column_443 Column_444 Column_445 Column_446 Column_447 Column_448 Column_449 Column_450 Column_451 Column_452 Column_453 Column_454 Column_455 Column_456 Column_457 Column_458 Column_459 Column_460 Column_461 Column_462 Column_463 Column_464 Column_465 Column_466 Column_467 Column_468 Column_469 Column_470 Column_471 Column_472 Column_473 Column_474 Column_475 Column_476 Column_477 Column_478 Column_479 Column_480 Column_481 Column_482 Column_483 Column_484 Column_485 Column_486 Column_487 Column_488 Column_489 Column_490 Column_491 Column_492 Column_493 Column_494 Column_495 Column_496 Column_497 Column_498 Column_499 Column_500 Column_501 Column_502 Column_503 Column_504 Column_505 Column_506 Column_507 Column_508 Column_509 Column_510 Column_511 Column_512 Column_513 Column_514 Column_515 Column_516 Column_517 Column_518 Column_519 Column_520 Column_521 Column_522 Column_523 Column_524 Column_525 Column_526 Column_527 Column_528 Column_529 Column_530 Column_531 Column_532 Column_533 Column_534 Column_535 Column_536 Column_537 Column_538 Column_539 Column_540 Column_541 Column_542 Column_543 Column_544 Column_545 Column_546 Column_547 Column_548 Column_549 Column_550 Column_551 Column_552 Column_553 Column_554 Column_555 Column_556 Column_557 Column_558 Column_559 Column_560 Column_561 Column_562 Column_563 Column_564 Column_565 Column_566 Column_567 Column_568 Column_569 Column_570 Column_571 Column_572 Column_573 Column_574 Column_575 Column_576 Column_577 Column_578 Column_579 Column_580 Column_581 Column_582 Column_583 Column_584 Column_585 Column_586 Column_587 Column_588 Column_589 Column_590 Column_591 Column_592 Column_593 Column_594 Column_595 Column_596 Column_597 Column_598 Column_599 Column_600 Column_601 Column_602 Column_603 Column_604 Column_605 Column_606 Column_607 Column_608 Column_609 Column_610 Column_611 Column_612 Column_613 Column_614 Column_615 Column_616 Column_617 Column_618 Column_619 Column_620 Column_621 Column_622 Column_623 Column_624 Column_625 Column_626 Column_627 Column_628 Column_629 Column_630 Column_631 Column_632 Column_633 Column_634 Column_635 Column_636 Column_637 Column_638 Column_639 Column_640 Column_641 Column_642 Column_643 Column_644 Column_645 Column_646 Column_647 Column_648 Column_649 Column_650 Column_651 Column_652 Column_653 Column_654 Column_655 Column_656 Column_657 Column_658 Column_659 Column_660 Column_661 Column_662 Column_663 Column_664 Column_665 Column_666 Column_667 Column_668 Column_669 Column_670 Column_671 Column_672 Column_673 Column_674 Column_675 Column_676 Column_677 Column_678 Column_679 Column_680 Column_681 Column_682 Column_683 Column_684 Column_685 Column_686 Column_687 Column_688 Column_689 Column_690 Column_691 Column_692 Column_693 Column_694 Column_695 Column_696 Column_697 Column_698 Column_699 Column_700 Column_701 Column_702 Column_703 Column_704 Column_705 Column_706 Column_707 Column_708 Column_709 Column_710 Column_711 Column_712 Column_713 Column_714 Column_715 Column_716 Column_717 Column_718 Column_719 Column_720 Column_721 Column_722 Column_723 Column_724 Column_725 Column_726 Column_727 Column_728 Column_729 Column_730 Column_731 Column_732 Column_733 Column_734 Column_735 Column_736 Column_737 Column_738 Column_739 Column_740 Column_741 Column_742 Column_743 Column_744 Column_745 Column_746 Column_747 Column_748 Column_749 Column_750 Column_751 Column_752 Column_753 Column_754 Column_755 Column_756 Column_757 Column_758 Column_759 Column_760 Column_761 Column_762 Column_763 Column_764 Column_765 Column_766 Column_767 Column_768 Column_769 Column_770 Column_771 Column_772 Column_773 Column_774 Column_775 Column_776 Column_777 Column_778 Column_779 Column_780 Column_781 Column_782 Column_783 Column_784 Column_785 Column_786 Column_787 Column_788 Column_789 Column_790 Column_791 Column_792 Column_793 Column_794 Column_795 Column_796 Column_797 Column_798 Column_799 Column_800 Column_801 Column_802 Column_803 Column_804 Column_805 Column_806 Column_807 Column_808 Column_809 Column_810 Column_811 Column_812 Column_813 Column_814 Column_815 Column_816 Column_817 Column_818 Column_819 Column_820 Column_821 Column_822 Column_823 Column_824 Column_825 Column_826 Column_827 Column_828 Column_829 Column_830 Column_831 Column_832 Column_833 Column_834 Column_835 Column_836 Column_837 Column_838 Column_839 Column_840 Column_841 Column_842 Column_843 Column_844 Column_845 Column_846 Column_847 Column_848 Column_849 Column_850 Column_851 Column_852 Column_853 Column_854 Column_855 Column_856 Column_857 Column_858 Column_859 Column_860 Column_861 Column_862 Column_863 Column_864 Column_865 Column_866 Column_867 Column_868 Column_869 Column_870 Column_871 Column_872 Column_873 Column_874 Column_875 Column_876 Column_877 Column_878 Column_879 Column_880 Column_881 Column_882 Column_883 Column_884 Column_885 Column_886 Column_887 Column_888 Column_889 Column_890 Column_891 Column_892 Column_893 Column_894 Column_895 Column_896 Column_897 Column_898 Column_899 Column_900 Column_901 Column_902 Column_903 Column_904 Column_905 Column_906 Column_907 Column_908 Column_909 Column_910 Column_911 Column_912 Column_913 Column_914 Column_915 Column_916 Column_917 Column_918 Column_919 Column_920 Column_921 Column_922 Column_923 Column_924 Column_925 Column_926 Column_927 Column_928 Column_929 Column_930 Column_931 Column_932 Column_933 Column_934 Column_935 Column_936 Column_937 Column_938 Column_939 Column_940 Column_941 Column_942 Column_943 Column_944 Column_945 Column_946 Column_947 Column_948 Column_949 Column_950 Column_951 Column_952 Column_953 Column_954 Column_955 Column_956 Column_957 Column_958 Column_959 Column_960 Column_961 Column_962 Column_963 Column_964 Column_965 Column_966 Column_967 Column_968 Column_969 Column_970 Column_971 Column_972 Column_973 Column_974 Column_975 Column_976 Column_977 Column_978 Column_979 Column_980 Column_981 Column_982 Column_983 Column_984 Column_985 Column_986 Column_987 Column_988 Column_989 Column_990 Column_991 Column_992 Column_993 Column_994 Column_995 Column_996 Column_997 Column_998 Column_999 Column_1000 Column_1001 Column_1002 Column_1003 Column_1004 Column_1005 Column_1006 Column_1007 Column_1008 Column_1009 Column_1010 Column_1011 Column_1012 Column_1013 Column_1014 Column_1015 Column_1016 Column_1017 Column_1018 Column_1019 Column_1020 Column_1021 Column_1022 Column_1023 Column_1024 Column_1025 Column_1026 Column_1027 Column_1028 Column_1029 Column_1030 Column_1031 Column_1032 Column_1033 Column_1034 Column_1035 Column_1036 Column_1037 Column_1038 Column_1039 Column_1040 Column_1041 Column_1042 Column_1043 Column_1044 Column_1045 Column_1046 Column_1047 Column_1048 Column_1049 Column_1050 Column_1051 Column_1052 Column_1053 Column_1054 Column_1055 Column_1056 Column_1057 Column_1058 Column_1059 Column_1060 Column_1061 Column_1062 Column_1063 Column_1064 Column_1065 Column_1066 Column_1067 Column_1068 Column_1069 Column_1070 Column_1071 Column_1072 Column_1073 Column_1074 Column_1075 Column_1076 Column_1077 Column_1078 Column_1079 Column_1080 Column_1081 Column_1082 Column_1083 Column_1084 Column_1085 Column_1086 Column_1087 Column_1088 Column_1089 Column_1090 Column_1091 Column_1092 Column_1093 Column_1094 Column_1095 Column_1096 Column_1097 Column_1098 Column_1099 Column_1100 Column_1101 Column_1102 Column_1103 Column_1104 Column_1105 Column_1106 Column_1107 Column_1108 Column_1109 Column_1110 Column_1111 Column_1112 Column_1113 Column_1114 Column_1115 Column_1116 Column_1117 Column_1118 Column_1119 Column_1120 Column_1121 Column_1122 Column_1123 Column_1124 Column_1125 Column_1126 Column_1127 Column_1128 Column_1129 Column_1130 Column_1131 Column_1132 Column_1133 Column_1134 Column_1135 Column_1136 Column_1137 Column_1138 Column_1139 Column_1140 Column_1141 Column_1142 Column_1143 Column_1144 Column_1145 Column_1146 Column_1147 Column_1148 Column_1149 Column_1150 Column_1151 Column_1152 Column_1153 Column_1154 Column_1155 Column_1156 Column_1157 Column_1158 Column_1159 Column_1160 Column_1161 Column_1162 Column_1163 Column_1164 Column_1165 Column_1166 Column_1167 Column_1168 Column_1169 Column_1170 Column_1171 Column_1172 Column_1173 Column_1174 Column_1175 Column_1176 Column_1177 Column_1178 Column_1179 Column_1180 Column_1181 Column_1182 Column_1183 Column_1184 Column_1185 Column_1186 Column_1187 Column_1188 Column_1189 Column_1190 Column_1191 Column_1192 Column_1193 Column_1194 Column_1195 Column_1196 Column_1197 Column_1198 Column_1199 Column_1200 Column_1201 Column_1202 Column_1203 Column_1204 Column_1205 Column_1206 Column_1207 Column_1208 Column_1209 Column_1210 Column_1211 Column_1212 Column_1213 Column_1214 Column_1215 Column_1216 Column_1217 Column_1218 Column_1219 Column_1220 Column_1221 Column_1222 Column_1223 Column_1224 Column_1225 Column_1226 Column_1227 Column_1228 Column_1229 Column_1230 Column_1231 Column_1232 Column_1233 Column_1234 Column_1235 Column_1236 Column_1237 Column_1238 Column_1239 Column_1240 Column_1241 Column_1242 Column_1243 Column_1244 Column_1245 Column_1246 Column_1247 Column_1248 Column_1249 Column_1250 Column_1251 Column_1252 Column_1253 Column_1254 Column_1255 Column_1256 Column_1257 Column_1258 Column_1259 Column_1260 Column_1261 Column_1262 Column_1263 Column_1264 Column_1265 Column_1266 Column_1267 Column_1268 Column_1269 Column_1270 Column_1271 Column_1272 Column_1273 Column_1274 Column_1275 Column_1276 Column_1277 Column_1278 Column_1279 Column_1280 Column_1281 Column_1282 Column_1283 Column_1284 Column_1285 Column_1286 Column_1287 Column_1288 Column_1289 Column_1290 Column_1291 Column_1292 Column_1293 Column_1294 Column_1295 Column_1296 Column_1297 Column_1298 Column_1299 Column_1300 Column_1301 Column_1302 Column_1303 Column_1304 Column_1305 Column_1306 Column_1307 Column_1308 Column_1309 Column_1310 Column_1311 Column_1312 Column_1313 Column_1314 Column_1315 Column_1316 Column_1317 Column_1318 Column_1319 Column_1320 Column_1321 Column_1322 Column_1323 Column_1324 Column_1325 Column_1326 Column_1327 Column_1328 Column_1329 Column_1330 Column_1331 Column_1332 Column_1333 Column_1334 Column_1335 Column_1336 Column_1337 Column_1338 Column_1339 Column_1340 Column_1341 Column_1342 Column_1343 Column_1344 Column_1345 Column_1346 Column_1347 Column_1348 Column_1349 Column_1350 Column_1351 Column_1352 Column_1353 Column_1354 Column_1355 Column_1356 Column_1357 Column_1358 Column_1359 Column_1360 Column_1361 Column_1362 Column_1363 Column_1364 Column_1365 Column_1366 Column_1367 Column_1368 Column_1369 Column_1370 Column_1371 Column_1372 Column_1373 Column_1374 Column_1375 Column_1376 Column_1377 Column_1378 Column_1379 Column_1380 Column_1381 Column_1382 Column_1383 Column_1384 Column_1385 Column_1386 Column_1387 Column_1388 Column_1389 Column_1390 Column_1391 Column_1392 Column_1393 Column_1394 Column_1395 Column_1396 Column_1397 Column_1398 Column_1399 Column_1400 Column_1401 Column_1402 Column_1403 Column_1404 Column_1405 Column_1406 Column_1407 Column_1408 Column_1409 Column_1410 Column_1411 Column_1412 Column_1413 Column_1414 Column_1415 Column_1416 Column_1417 Column_1418 Column_1419 Column_1420 Column_1421 Column_1422 Column_1423 Column_1424 Column_1425 Column_1426 Column_1427 Column_1428 Column_1429 Column_1430 Column_1431 Column_1432 Column_1433 Column_1434 Column_1435 Column_1436 Column_1437 Column_1438 Column_1439 Column_1440 Column_1441 Column_1442 Column_1443 Column_1444 Column_1445 Column_1446 Column_1447 Column_1448 Column_1449 Column_1450 Column_1451 Column_1452 Column_1453 Column_1454 Column_1455 Column_1456 Column_1457 Column_1458 Column_1459 Column_1460 Column_1461 Column_1462 Column_1463 Column_1464 Column_1465 Column_1466 Column_1467 Column_1468 Column_1469 Column_1470 Column_1471 Column_1472 Column_1473 Column_1474 Column_1475 Column_1476 Column_1477 Column_1478 Column_1479 Column_1480 Column_1481 Column_1482 Column_1483 Column_1484 Column_1485 Column_1486 Column_1487 Column_1488 Column_1489 Column_1490 Column_1491 Column_1492 Column_1493 Column_1494 Column_1495 Column_1496 Column_1497 Column_1498 Column_1499 Column_1500 Column_1501 Column_1502 Column_1503 Column_1504 Column_1505 Column_1506 Column_1507 Column_1508 Column_1509 Column_1510 Column_1511 Column_1512 Column_1513 Column_1514 Column_1515 Column_1516 Column_1517 Column_1518 Column_1519 Column_1520 Column_1521 Column_1522 Column_1523 Column_1524 Column_1525 Column_1526 Column_1527 Column_1528 Column_1529 Column_1530 Column_1531 Column_1532 Column_1533 Column_1534 Column_1535
feature_infos=[1.0125927925109863:3.800713062286377] [-0.20651644468307495:1.9934542179107666] [-3.2143850326538086:-0.98945516347885132] [-2.0008058547973633:0.19881807267665863] [-0.2052745521068573:1.9012106657028198] [-2.1077380180358887:-0.085989974439144135] [-2.7693703174591064:-1.3620955944061279] [-0.045125320553779602:2.0675091743469238] [-0.21553744375705719:1.9598147869110107] [-2.0338339805603027:0.095036305487155914] [-0.21671147644519806:1.9645578861236572] [-0.26783004403114319:1.9894888401031494] [-2.0745387077331543:0.15990899503231049] [0.49143815040588379:2.6378662586212158] [0.62070953845977783:3.1815590858459473] [-1.9610401391983032:-0.26239106059074402] [0.88327634334564209:3.6988546848297119] [0.078240200877189636:1.6882433891296387] [-0.020977137610316277:2.0340371131896973] [-3.7837276458740234:-0.99944144487380981] [-3.3366744518280029:-1.0920333862304688] [-1.7518763542175293:-0.06934066116809845] [0.15350356698036194:1.624946117401123] [-0.011627903208136559:1.7101001739501953] [-0.030884785577654839:2.0740694999694824] [-0.24331170320510864:1.9692655801773071] [0.94335871934890747:3.7711880207061768] [1.4100356101989746:2.8206849098205566] [-2.0533657073974609:0.12237302958965302] [-2.0470361709594727:-0.055503789335489273] [0.04576527327299118:1.9205009937286377] [-2.6763460636138916:-1.2501610517501831] [-2.0220401287078857:0.17109197378158569] [1.0076264142990112:2.9717392921447754] [-1.9231951236724854:0.063163533806800842] [-1.9130305051803589:0.30438578128814697] [-0.1837354302406311:1.9007399082183838] [-0.20299282670021057:2.0328562259674072] [-1.9065141677856445:0.21952876448631287] [0.19122005999088287:2.1681005954742432] [-3.7430176734924316:-0.9697563648223877] [0.99686580896377563:2.982480525970459] [-2.0514886379241943:0.16592594981193542] [0.11920695006847382:1.5821417570114136] [-1.9309884309768677:0.2661871612071991] [-0.22046965360641479:1.8262004852294922] [-0.13319157063961029:2.0117528438568115] [-2.0048649311065674:0.20232906937599182] [-3.7214279174804688:-0.99328207969665527] [-1.7325214147567749:0.35054945945739746] [-3.4260883331298828:-0.76364880800247192] [-0.29109397530555725:1.7953757047653198] [-2.9846072196960449:-1.0721185207366943] [-1.8718667030334473:0.09302278608083725] [-2.0589945316314697:0.098156370222568512] [-2.1223280429840088:0.11226586997509003] [-0.40012732148170471:1.9418140649795532] [-2.9744968414306641:-0.93536198139190674] [-0.17466557025909424:1.7816485166549683] [-0.080447696149349213:2.0092971324920654] [-0.20794013142585754:1.9461411237716675] [-0.12361408770084381:2.0359961986541748] [-0.062444034963846207:2.1608939170837402] [-0.13273876905441284:2.0555846691131592] [-0.16665415465831757:1.9906966686248779] [0.49077877402305603:3.0623733997344971] [0.551810622215271:3.0948135852813721] [-1.906994104385376:0.24902065098285675] [-1.9002704620361328:0.27504679560661316] [-1.8805141448974609:0.30468094348907471] [-2.774893045425415:-1.2156964540481567] [0.1361878365278244:2.0111114978790283] [-0.11862482130527496:2.0256900787353516] [-3.9119253158569336:-0.97462499141693115] [-1.9745805263519287:0.25785771012306213] [-3.2225658893585205:-0.32708296179771423] [-2.8882808685302734:-0.50842499732971191] [-0.13628646731376648:1.8901810646057129] [-0.16581636667251587:1.9886343479156494] [-0.27111184597015381:1.7422535419464111] [-1.9867688417434692:0.08321322500705719] [-1.9861102104187012:-0.017739519476890564] [-1.8953579664230347:0.18466867506504059] [-0.11431413888931274:1.7182366847991943] [-1.9697703123092651:0.30392360687255859] [-0.020956922322511673:2.0585536956787109] [-0.11890321224927902:1.940912127494812] [0.15029042959213257:2.0380861759185791] [-2.0020210742950439:0.18675568699836731] [-1.9376986026763916:0.27703851461410522] [-1.9666961431503296:0.067749515175819397] [-1.9949289560317993:0.0068088867701590061] [-1.9654738903045654:-0.16891637444496155] [-0.20172685384750366:1.6522154808044434] [-0.076832853257656097:1.9226415157318115] [-0.17757724225521088:1.8724391460418701] [-2.0125031471252441:0.21513506770133972] [-1.92284095287323:0.28055021166801453] [0.9081796407699585:3.0615246295928955] [-1.6685596704483032:-0.0037134287413209677] [-0.32786738872528076:1.8050754070281982] [-0.1036590188741684:1.9539269208908081] [-0.336823970079422:1.9314920902252197] [-1.8933802843093872:0.32369759678840637] [0.11679034680128098:1.9901396036148071] [0.056427467614412308:1.5325709581375122] [-0.22449186444282532:1.8302431106567383] [0.046388432383537292:1.9180978536605835] [-2.0790419578552246:-0.037496317178010941] [-0.15681673586368561:2.0799629688262939] [-1.5496584177017212:0.46856501698493958] [0.0072550694458186626:1.9766997098922729] [-0.014503675512969494:1.7705285549163818] [1.2955542802810669:2.8395154476165771] [0.18401223421096802:2.0551528930664062] [-1.9593626260757446:-0.26943716406822205] [-2.1691098213195801:-0.10936257988214493] [-1.8699773550033569:0.15623608231544495] [-3.8910167217254639:-0.99624395370483398] [-0.087565287947654724:1.9724124670028687] [-0.28021794557571411:1.9326773881912231] [-2.0730221271514893:-0.064948827028274536] [-1.5249154567718506:0.13772779703140259] [-3.1033918857574463:-0.41628709435462952] [-1.9900264739990234:0.22282150387763977] [-1.9214185476303101:0.05863531306385994] [-1.945906400680542:0.18770268559455872] [-2.0823605060577393:-0.22208534181118011] [-1.9795733690261841:-0.0083728563040494919] [-2.0487377643585205:0.25844782590866089] [-2.1354343891143799:0.13812273740768433] [-0.32205310463905334:1.4974486827850342] [0.10073026269674301:2.0722236633300781] [-0.20345509052276611:1.8978884220123291] [-3.1558313369750977:-0.95287489891052246] [-0.20603781938552856:1.963300347328186] [-1.9762840270996094:0.066457539796829224] [1.1917634010314941:2.7997980117797852] [-3.5838108062744141:-0.96591222286224365] [-1.8637452125549316:0.26506996154785156] [-2.4192051887512207:-0.19813014566898346] [-0.27699223160743713:1.9884508848190308] [-2.0478904247283936:0.21519224345684052] [-0.28439003229141235:1.7927535772323608] [-2.7961797714233398:-1.2771363258361816] [-1.9121654033660889:0.35186001658439636] [-0.20601201057434082:1.9734731912612915] [0.11215595901012421:2.0757536888122559] [-1.9116338491439819:0.37288254499435425] [-0.24370503425598145:1.9256993532180786] [-1.9445698261260986:0.063965223729610443] [-1.9443608522415161:0.030682837590575218] [-3.0368854999542236:-0.67909926176071167] [-1.7860110998153687:0.049042277038097382] [-0.12103565037250519:1.862061619758606] [-1.9289315938949585:0.31687745451927185] [-2.6501812934875488:-1.283122181892395] [0.85561388731002808:3.1030240058898926] [-2.0173611640930176:-0.2327377051115036] [-3.3333182334899902:-0.64869034290313721] [0.091188065707683563:1.669364333152771] [-2.513634204864502:-0.24884422123432159] [-0.17633262276649475:1.9895617961883545] [-1.8935462236404419:0.37903639674186707] [-0.90860307216644287:0.84736442565917969] [-0.21936342120170593:1.9648927450180054] [-2.0092744827270508:0.19209367036819458] [-0.39924877882003784:1.8064678907394409] [-1.9070892333984375:0.26783230900764465] [0.26340320706367493:1.97651207447052] [0.66990774869918823:3.1832315921783447] [-1.959800124168396:0.0050661615096032619] [-0.18979823589324951:1.950189471244812] [-0.21657539904117584:1.8932112455368042] [-1.8577131032943726:-0.24991984665393829] [-0.1642666757106781:1.9967666864395142] [-3.1201608180999756:-0.40186452865600586] [-1.9441310167312622:0.2675291895866394] [-2.8239881992340088:-1.1717164516448975] [-0.19615016877651215:1.8399794101715088] [-2.0659670829772949:0.14977568387985229] [-2.0772025585174561:0.20144625008106232] [1.1810296773910522:2.8649344444274902] [-0.27995553612709045:1.5956994295120239] [-0.16255025565624237:2.0654299259185791] [-0.161995530128479:2.1286745071411133] [-1.8930604457855225:0.16933533549308777] [-1.9063827991485596:0.35928830504417419] [-2.0288975238800049:0.21115191280841827] [-0.048132620751857758:1.7024590969085693] [-1.9811285734176636:0.11732641607522964] [0.025200838223099709:2.1367874145507812] [-0.057894095778465271:2.1158115863800049] [-1.9580540657043457:0.28677812218666077] [0.13022615015506744:1.9857041835784912] [-1.7126346826553345:0.022190842777490616] [-1.9327307939529419:0.089652098715305328] [-0.10992186516523361:1.9730819463729858] [0.010898774489760399:1.6798712015151978] [-0.019062057137489319:2.0117931365966797] [-1.9241381883621216:-0.15514387190341949] [1.0705866813659668:3.5113599300384521] [1.0513656139373779:3.3523366451263428] [-1.9998971223831177:-0.11802291870117188] [-2.8543407917022705:-1.1416562795639038] [-2.9995772838592529:-0.37410998344421387] [-2.7096655368804932:-1.1317027807235718] [-1.4305058717727661:-0.093396864831447601] [0.049962244927883148:2.0858728885650635] [-1.9911501407623291:0.15844957530498505] [-0.17275670170783997:1.8169327974319458] [-1.877618670463562:0.20881403982639313] [-0.09899120032787323:1.9311022758483887] [-1.8067668676376343:0.13824403285980225] [0.21248583495616913:1.8423914909362793] [0.24344834685325623:2.9981114864349365] [-1.9681793451309204:0.2590290904045105] [-1.9914127588272095:-0.19598335027694702] [-2.3405075073242188:-0.42344111204147339] [-1.6891341209411621:0.14338099956512451] [-1.7688707113265991:-0.1278974711894989] [-0.18774673342704773:2.1539175510406494] [-2.0315368175506592:0.25062757730484009] [-2.0674808025360107:0.10875432938337326] [-1.8092132806777954:0.33864036202430725] [-0.20121580362319946:1.9158543348312378] [-1.8939498662948608:0.22452268004417419] [0.014654873870313168:2.0248477458953857] [0.89024066925048828:2.5674154758453369] [-1.8393360376358032:0.16524679958820343] [0.12761788070201874:1.9822790622711182] [-0.27546945214271545:2.0119156837463379] [-3.1897921562194824:-0.57094877958297729] [0.54055750370025635:2.608698844909668] [-2.707341194152832:-0.30184558033943176] [-0.14352273941040039:1.9946216344833374] [-1.9103802442550659:0.31984144449234009] [-0.1534169465303421:2.0290486812591553] [-1.9242871999740601:0.1668359637260437] [-1.970714807510376:0.30816379189491272] [-0.027767512947320938:2.0303857326507568] [-0.11319337785243988:1.9074740409851074] [-1.9484270811080933:0.30717927217483521] [0.72613310813903809:3.1036567687988281] [-0.03143291175365448:2.0453171730041504] [-1.9182920455932617:0.30298840999603271] [-1.9774965047836304:0.044893793761730194] [-0.033125516027212143:1.6504397392272949] [-0.093622922897338867:1.9960346221923828] [-1.9399014711380005:0.035726230591535568] [-1.8401075601577759:0.064525946974754333] [0.31885361671447754:1.7649422883987427] [-2.0376443862915039:0.079510167241096497] [1.0997204780578613:3.0260646343231201] [-1.9118144512176514:0.34060114622116089] [-0.040621917694807053:2.1465749740600586] [-1.9758288860321045:0.32720544934272766] [0.14503586292266846:2.0849764347076416] [-0.056959118694067001:2.1364688873291016] [0.15443705022335052:1.8543828725814819] [-2.005556583404541:0.2389751672744751] [-1.7164676189422607:0.14771662652492523] [0.55686038732528687:3.2225875854492188] [-0.00035143134300597012:2.0731348991394043] [-0.096137836575508118:2.0983748435974121] [-2.0850374698638916:-0.034780532121658325] [-1.9258869886398315:0.11868367344141006] [-0.028537418693304062:2.0466701984405518] [-1.9916480779647827:0.28688874840736389] [-2.1006128787994385:0.12117667496204376] [-0.18117652833461761:1.9569188356399536] [0.12624190747737885:1.9503350257873535] [-1.8995699882507324:0.16531138122081757] [-3.4406359195709229:-1.0339665412902832] [-2.070742130279541:0.22637626528739929] [-0.018479501828551292:1.8028692007064819] [0.9797213077545166:3.8632409572601318] [-2.6571946144104004:-1.3043519258499146] [-3.1265559196472168:-0.38497531414031982] [-0.23530617356300354:1.9862920045852661] [-2.0050301551818848:0.20196540653705597] [-2.0023422241210938:0.26567336916923523] [-2.0695054531097412:-0.086508207023143768] [-2.0220775604248047:0.22540454566478729] [1.0539799928665161:3.3465983867645264] [0.10569345951080322:2.1337409019470215] [-1.9892803430557251:0.16509972512722015] [0.88451743125915527:2.760920524597168] [-0.3490680456161499:1.7076572179794312] [-0.024157021194696426:2.0178139209747314] [0.0037868842482566833:1.7957563400268555] [-1.9514490365982056:0.33485853672027588] [-3.091404914855957:-0.55752736330032349] [-4.0422029495239258:-0.9504166841506958] [0.068440243601799011:1.8638160228729248] [0.97210019826889038:3.862494945526123] [-2.0363273620605469:0.1697733998298645] [0.12760250270366669:2.1727194786071777] [-0.13129515945911407:1.9897192716598511] [-1.739458441734314:-0.081163480877876282] [-0.18209099769592285:2.9364118576049805] [-1.8525440692901611:0.25135570764541626] [-0.12156086415052414:1.9412857294082642] [1.008628249168396:3.8505485057830811] [-2.1058549880981445:-0.20232366025447845] [-0.26065894961357117:1.8800569772720337] [-0.093925900757312775:2.0452613830566406] [-3.9946112632751465:-0.97810530662536621] [-2.3991086483001709:-0.28933665156364441] [0.73088920116424561:3.1146533489227295] [-1.9517145156860352:0.21850152313709259] [-0.072764568030834198:2.0571432113647461] [-3.0123586654663086:-1.0804504156112671] [-2.0659236907958984:-0.1639605313539505] [-1.9400241374969482:0.095934808254241943] [-0.24068786203861237:1.9538261890411377] [-0.017207920551300049:2.1075658798217773] [-1.718854546546936:0.29690301418304443] [-2.0685896873474121:-0.085685208439826965] [-2.0861740112304688:-0.17611347138881683] [-0.29256096482276917:1.9341284036636353] [-0.14382241666316986:1.8848270177841187] [-1.8836970329284668:0.033478770405054092] [-0.042839132249355316:1.8540297746658325] [-2.6215627193450928:-0.62928146123886108] [-0.17085084319114685:1.9683284759521484] [-1.9271001815795898:0.1449931412935257] [-2.9452900886535645:-0.31197530031204224] [-3.9295308589935303:-0.93960088491439819] [-0.16688857972621918:1.9192445278167725] [-1.9898085594177246:0.21562837064266205] [-1.9110914468765259:0.23018026351928711] [-1.7125964164733887:-0.017097584903240204] [0.16980595886707306:1.9182354211807251] [-0.15766377747058868:2.0147526264190674] [-0.10846491158008575:1.9986323118209839] [-0.010576547123491764:1.8089098930358887] [-0.28494003415107727:1.9481316804885864] [-0.25846090912818909:1.9893729686737061] [-0.21382388472557068:1.923357367515564] [-1.9644021987915039:0.19543974101543427] [-0.038423087447881699:1.7585337162017822] [-2.9367754459381104:-0.29206472635269165] [-0.12417613714933395:2.8389313220977783] [1.2369111776351929:2.7002067565917969] [-1.079810619354248:0.63272356986999512] [0.49801838397979736:2.73846435546875] [-0.027735918760299683:2.0679004192352295] [-0.26050880551338196:1.8575493097305298] [-0.10177773237228394:1.5326025485992432] [-0.24756373465061188:1.8606345653533936] [0.19012229144573212:2.0020384788513184] [0.99262535572052002:4.1431598663330078] [0.072648018598556519:1.9271880388259888] [-1.6894159317016602:0.51022392511367798] [-0.26406183838844299:1.9290900230407715] [-1.9751561880111694:0.26032239198684692] [-1.9080711603164673:0.19942370057106018] [-0.026393987238407135:2.0631725788116455] [-2.0027885437011719:0.11765078455209732] [-0.34190019965171814:1.9061727523803711] [-1.8615639209747314:0.32538408041000366] [-2.0172595977783203:0.28314259648323059] [0.32731509208679199:3.0886387825012207] [0.050119191408157349:1.9958752393722534] [-3.0334713459014893:-0.39628404378890991] [-1.8708573579788208:-0.025813022628426552] [-0.11479681730270386:1.6135517358779907] [-3.0555567741394043:-0.32060855627059937] [-2.15911865234375:-0.037085007876157761] [-0.18417692184448242:1.7917723655700684] [-1.9574449062347412:0.20539379119873047] [-2.9334683418273926:0.20073123276233673] [0.60052239894866943:2.5387201309204102] [-0.1683400571346283:1.939882755279541] [-0.16173280775547028:2.0003082752227783] [-1.9549585580825806:0.18283946812152863] [-2.1240677833557129:0.072055444121360779] [-2.5814416408538818:-1.0814687013626099] [-3.1421992778778076:-0.54750519990921021] [-1.7106953859329224:0.098647721111774445] [-2.024782657623291:-0.054254155606031418] [-2.1579360961914062:0.21008369326591492] [-0.3953859806060791:1.928000807762146] [0.51120960712432861:3.1558167934417725] [-0.13447394967079163:1.972572922706604] [-0.12721249461174011:1.9509607553482056] [-0.053270924836397171:1.9928572177886963] [-2.9863183498382568:-0.96491944789886475] [-2.1462280750274658:0.040896113961935043] [-0.16445836424827576:1.9682537317276001] [-0.25698775053024292:1.7875217199325562] [0.036062382161617279:1.7857383489608765] [-1.8236194849014282:0.35512998700141907] [-1.9121540784835815:0.12669338285923004] [-1.8652199506759644:0.14724487066268921] [-0.32431399822235107:2.0127410888671875] [-0.11039797216653824:1.9750642776489258] [-1.9129854440689087:0.22920610010623932] [-0.16539038717746735:1.9525991678237915] [-0.35477137565612793:1.878162145614624] [0.10923655331134796:1.6840277910232544] [-1.6891403198242188:-0.037004370242357254] [-3.0094318389892578:-0.71682149171829224] [-0.29588595032691956:1.9806278944015503] [-4.1026597023010254:-1.0388045310974121] [1.0688904523849487:3.8204138278961182] [-0.010838004760444164:1.9745420217514038] [-1.9406825304031372:0.20785713195800781] [-3.1175322532653809:-0.35186520218849182] [-1.8345475196838379:0.25965753197669983] [0.9112541675567627:2.9800996780395508] [-0.036667026579380035:1.4725959300994873] [-1.6361814737319946:-0.067354150116443634] [-1.9659733772277832:0.27084317803382874] [-2.7659974098205566:-0.48503917455673218] [-2.6880185604095459:-0.5195041298866272] [-0.23713108897209167:1.8933221101760864] [1.1431351900100708:3.2264168262481689] [-0.21183575689792633:1.9895222187042236] [0.030015809461474419:2.0685546398162842] [-2.022341251373291:-0.24634774029254913] [0.82232403755187988:2.7535610198974609] [-1.9120384454727173:-0.052071806043386459] [-0.11055207252502441:1.8239731788635254] [-1.9108148813247681:0.24140317738056183] [-1.9055366516113281:0.31193241477012634] [-1.8451215028762817:0.035799641162157059] [0.025250205770134926:1.6551550626754761] [-3.0312125682830811:-0.9182361364364624] [0.139931321144104:2.200502872467041] [-0.23946277797222137:2.0559103488922119] [-2.6973330974578857:-1.3264422416687012] [-1.9987422227859497:-0.055223431438207626] [-1.9094744920730591:0.26622956991195679] [0.88084244728088379:3.4186398983001709] [1.0537309646606445:2.8629896640777588] [-0.0035901912488043308:1.5990185737609863] [-0.26138976216316223:1.9244399070739746] [-2.1343445777893066:-0.22528064250946045] [-2.8065001964569092:-0.68709123134613037] [0.29715812206268311:2.0629844665527344] [0.20153237879276276:2.0302693843841553] [-1.8519604206085205:0.29216662049293518] [-2.0422866344451904:0.36280107498168945] [-0.21058966219425201:1.9470129013061523] [-0.10877400636672974:2.0142073631286621] [-3.177515983581543:-1.1426986455917358] [-0.056336645036935806:2.0140480995178223] [-1.6682593822479248:-0.033446274697780609] [-1.9643726348876953:-0.11030492186546326] [-1.9393928050994873:0.229901522397995] [-0.18587400019168854:1.8949198722839355] [-0.27356484532356262:1.9200924634933472] [-1.8588523864746094:-0.030283207073807716] [-2.1510200500488281:0.13952948153018951] [-0.1024869978427887:1.9679043292999268] [-2.0089952945709229:0.12758728861808777] [1.1317048072814941:2.8604693412780762] [0.90190619230270386:2.9664106369018555] [-1.9087942838668823:0.28051525354385376] [-0.091257020831108093:1.7289324998855591] [-2.8663983345031738:-0.97948938608169556] [-0.21574819087982178:2.0031125545501709] [-1.9872888326644897:0.10367251932621002] [-2.7132384777069092:0.28335699439048767] [0.96824342012405396:3.86767578125] [-3.0709266662597656:-0.74283486604690552] [-1.9109328985214233:0.26331344246864319] [-2.4602859020233154:-0.19341351091861725] [0.40515699982643127:2.6145918369293213] [-1.8239289522171021:0.46828752756118774] [-1.9927761554718018:0.16667607426643372] [-1.9090100526809692:0.33982932567596436] [-1.9880805015563965:0.054840687662363052] [-1.939761757850647:0.23943299055099487] [1.2645202875137329:2.6711513996124268] [-1.8709976673126221:0.22276607155799866] [0.15006151795387268:2.0540475845336914] [-3.5454902648925781:-1.0148340463638306] [-2.748232364654541:-1.3486107587814331] [-0.040048711001873016:2.0896060466766357] [-0.26816269755363464:1.8836288452148438] [-3.8495414257049561:-0.96982693672180176] [-1.8832135200500488:0.29984769225120544] [-2.8507800102233887:-1.1847643852233887] [-1.9056963920593262:0.26525786519050598] [-0.11139844357967377:1.9165580272674561] [-1.8827852010726929:0.25186002254486084] [-1.8162661790847778:0.27016827464103699] [-2.0024316310882568:-0.18450696766376495] [0.12274400144815445:1.8123574256896973] [-0.22812770307064056:1.9532523155212402] [-0.12025931477546692:2.0800900459289551] [-0.074167519807815552:2.0680410861968994] [-2.1864936351776123:0.17638613283634186] [-2.6785755157470703:-1.1435133218765259] [0.056226618587970734:2.053687572479248] [-3.0802834033966064:-0.39412793517112732] [0.046475719660520554:1.8946124315261841] [-1.8055297136306763:-0.02159823477268219] [0.22486373782157898:2.0783107280731201] [-1.9250929355621338:0.20978479087352753] [-2.1378331184387207:0.1351022869348526] [-1.1514873504638672:0.72701048851013184] [-0.24501916766166687:1.904365062713623] [-0.11864172667264938:1.9658116102218628] [1.0807106494903564:3.5205278396606445] [-0.078128501772880554:2.0296471118927002] [0.085844770073890686:1.9943346977233887] [-2.0579142570495605:-0.10918247699737549] [-1.9488393068313599:0.070866212248802185] [-2.7195858955383301:-1.2946993112564087] [-2.8470475673675537:-1.1738102436065674] [0.59212106466293335:3.1706912517547607] [-0.034086462110280991:1.9945621490478516] [-1.6187564134597778:-0.013163754716515541] [-0.30352988839149475:1.3654631376266479] [-2.0084047317504883:0.2025580108165741] [-0.091683998703956604:2.0748069286346436] [-2.0214681625366211:0.23212085664272308] [-0.25259345769882202:1.9975857734680176] [-2.0754997730255127:0.20192871987819672] [-0.19084596633911133:1.9148977994918823] [-2.0690898895263672:-0.2123589813709259] [-0.2680211067199707:1.9808725118637085] [-0.017993561923503876:1.8396815061569214] [-0.17181877791881561:1.9302482604980469] [-2.8758130073547363:-0.70938229560852051] [1.126151442527771:3.005772590637207] [-2.0554525852203369:0.036869723349809647] [-2.03387451171875:0.019337350502610207] [-0.072210617363452911:2.0317847728729248] [-2.7588152885437012:-1.3936197757720947] [-1.7861822843551636:0.39140400290489197] [-0.010263510979712009:1.9563812017440796] [-3.5234835147857666:-1.0212788581848145] [-2.0380480289459229:0.21114996075630188] [-2.0336275100708008:-0.085089176893234253] [-1.9637455940246582:0.11587189882993698] [-1.5748661756515503:-0.13593432307243347] [-0.1636328250169754:1.9311332702636719] [-1.9538189172744751:0.26882678270339966] [1.0297852754592896:3.4420304298400879] [-1.2629525661468506:0.27975907921791077] [-1.905867338180542:0.24275171756744385] [0.24751000106334686:2.4736027717590332] [-0.26411783695220947:1.9652701616287231] [-2.0268371105194092:0.10462988913059235] [-2.7257757186889648:-1.254441499710083] [-1.956487774848938:0.21637812256813049] [-0.21891173720359802:1.9636106491088867] [-1.9900044202804565:0.20861728489398956] [-1.8438551425933838:0.17938083410263062] [-1.8290088176727295:0.27470797300338745] [1.1048388481140137:3.0127644538879395] [-0.49582237005233765:1.2117223739624023] [-0.2030329704284668:1.959355354309082] [0.95204240083694458:3.3107137680053711] [-0.25711619853973389:1.9004672765731812] [-0.18743923306465149:2.03556227684021] [-0.32749238610267639:1.964208722114563] [-2.0780713558197021:0.30992558598518372] [-1.9693185091018677:0.20364855229854584] [1.1875189542770386:2.8463289737701416] [0.95623517036437988:4.0597925186157227] [-1.9946844577789307:0.22819778323173523] [-1.7758951187133789:0.016322115436196327] [-0.033519238233566284:2.0728905200958252] [-1.8197042942047119:0.036951474845409393] [1.3117653131484985:2.799572229385376] [-2.1074483394622803:0.23097974061965942] [-3.092519998550415:-0.84229260683059692] [-1.9723718166351318:0.29410216212272644] [-0.03076876699924469:1.9695991277694702] [-0.24852851033210754:2.0766925811767578] [-2.0395870208740234:0.23679591715335846] [0.19325292110443115:1.8314132690429688] [-3.900395393371582:-0.98043286800384521] [-1.9591997861862183:0.021521478891372681] [-1.9955830574035645:0.24181723594665527] [-1.9673631191253662:0.17247982323169708] [-1.9472347497940063:0.14058303833007812] [1.3122793436050415:2.8484268188476562] [-1.2309573888778687:0.47915655374526978] [-1.9744303226470947:0.12103623151779175] [-0.16912828385829926:1.5501387119293213] [-0.28728798031806946:1.8915854692459106] [-3.2807934284210205:-0.98710030317306519] [0.0063152126967906952:2.1152520179748535] [0.006262319628149271:2.1565089225769043] [-1.632541298866272:0.099468953907489777] [-0.22729082405567169:2.0692479610443115] [0.9801291823387146:3.6296203136444092] [-2.0973248481750488:0.01158569473773241] [-2.0837776660919189:-0.21361054480075836] [-0.028402309864759445:1.8388588428497314] [0.77987349033355713:2.6394197940826416] [-1.8532595634460449:0.18509426712989807] [1.013232946395874:3.9587345123291016] [-0.30197206139564514:1.9458407163619995] [-0.10379511117935181:1.8538860082626343] [-1.9378961324691772:0.18058982491493225] [-2.0259003639221191:0.15011437237262726] [-0.23068426549434662:1.9463286399841309] [-0.12544538080692291:1.6439380645751953] [-1.8489142656326294:0.073925428092479706] [-2.6117403507232666:-1.2157564163208008] [-2.0358626842498779:0.25196009874343872] [-1.8540672063827515:0.41137540340423584] [-1.9468154907226562:0.15963253378868103] [-1.5888789892196655:0.21710760891437531] [-1.9700422286987305:0.29968273639678955] [-2.8746168613433838:-0.72819232940673828] [1.273169994354248:2.7831728458404541] [-0.12800900638103485:2.0449743270874023] [-1.9186162948608398:0.41219580173492432] [-3.1651513576507568:-0.35117608308792114] [-0.16370546817779541:2.1254873275756836] [-0.108049176633358:2.0230798721313477] [-0.25126606225967407:1.9870297908782959] [1.1744357347488403:2.7236635684967041] [-2.69852614402771:-1.1627018451690674] [-1.9171744585037231:0.18815290927886963] [-0.17804856598377228:2.1022694110870361] [-1.9952372312545776:0.13202345371246338] [-0.2882114052772522:2.0660572052001953] [-2.8100030422210693:-1.1659704446792603] [-0.21520169079303741:1.9736553430557251] [-3.6240129470825195:-1.0084779262542725] [-3.1602163314819336:-0.3629702627658844] [-0.24246782064437866:1.8861026763916016] [-2.1856231689453125:0.20746855437755585] [-0.12684424221515656:2.0533554553985596] [1.0444817543029785:3.1375298500061035] [-3.0418400764465332:-0.72801357507705688] [-0.35521548986434937:1.9344737529754639] [0.053231865167617798:2.1145508289337158] [0.26756018400192261:1.9692013263702393] [1.2361029386520386:2.8527219295501709] [-0.092091567814350128:1.865355372428894] [-2.9450454711914062:-0.25182679295539856] [-0.16240045428276062:1.9230928421020508] [-0.26131346821784973:1.9490205049514771] [-2.0011246204376221:-0.17720460891723633] [-3.1923131942749023:-1.0635656118392944] [-2.0224857330322266:0.2851860523223877] [-0.23618453741073608:1.5576628446578979] [-0.15840257704257965:2.0056829452514648] [-0.35192915797233582:1.8948373794555664] [-2.0079255104064941:0.26105472445487976] [-2.6293694972991943:-0.31306898593902588] [-1.8893188238143921:0.29232731461524963] [0.97148644924163818:2.9931697845458984] [0.79299741983413696:2.5852398872375488] [-2.1774895191192627:0.23962068557739258] [-1.8737097978591919:0.34414497017860413] [-2.9568362236022949:-1.0938462018966675] [-0.18258741497993469:1.9476113319396973] [-1.6518367528915405:-0.11629562079906464] [-0.242359459400177:1.796961784362793] [-0.18726015090942383:1.8914399147033691] [-0.085959985852241516:1.7636533975601196] [-0.16923068463802338:1.80787193775177] [-1.727677583694458:0.13648439943790436] [-0.091253906488418579:1.6228201389312744] [-0.14987534284591675:2.1314795017242432] [-1.9165213108062744:-0.19246497750282288] [-2.0081667900085449:0.13409076631069183] [-3.365964412689209:-1.0387216806411743] [-1.9043271541595459:0.095597878098487854] [0.30181220173835754:2.0385749340057373] [-2.0086417198181152:0.091866739094257355] [-1.9662659168243408:0.21580089628696442] [-2.1440291404724121:0.10637783259153366] [0.081774190068244934:2.172593355178833] [-1.9242709875106812:-0.21644149720668793] [-1.9058085680007935:-0.15016122162342072] [-2.0149331092834473:0.13647665083408356] [-1.6082621812820435:-0.045977875590324402] [-3.0653681755065918:-1.1267064809799194] [-2.9894669055938721:-0.75989919900894165] [-3.8127045631408691:-0.90731918811798096] [-0.25247684121131897:1.9692715406417847] [0.48376768827438354:3.0571637153625488] [-2.3056344985961914:-0.14246299862861633] [-0.34063249826431274:1.9000874757766724] [-2.0094623565673828:0.1274583637714386] [-2.1232991218566895:-0.14805006980895996] [-2.1785814762115479:-0.17829592525959015] [-1.9868987798690796:0.08638763427734375] [-0.21418741345405579:1.9018319845199585] [0.13749459385871887:1.9193336963653564] [-1.7539857625961304:0.24960091710090637] [-0.10108029842376709:1.844480037689209] [-3.1279644966125488:-0.3363851010799408] [-2.0707626342773438:0.16035845875740051] [-0.078807495534420013:2.1189181804656982] [-1.9758318662643433:0.15955641865730286] [-1.9934302568435669:0.18401259183883667] [1.3213121891021729:2.7744598388671875] [-0.00019597538630478084:2.1576535701751709] [0.05793420597910881:2.0196688175201416] [-1.8224866390228271:0.37074244022369385] [-0.28384286165237427:1.6202601194381714] [-0.19868777692317963:1.8854644298553467] [-2.0304076671600342:0.17901936173439026] [0.45851656794548035:3.0876100063323975] [-3.071502685546875:-0.35208719968795776] [-0.13943475484848022:1.950358510017395] [-1.8160313367843628:0.1596316397190094] [-1.6611537933349609:0.043763685971498489] [-3.8840370178222656:-0.92203652858734131] [0.29463714361190796:2.017035961151123] [-2.0386507511138916:0.17641131579875946] [0.011193080805242062:2.1348471641540527] [-1.9534069299697876:0.23308217525482178] [1.0497474670410156:3.2082462310791016] [-1.7405663728713989:0.030025230720639229] [-0.22553877532482147:1.960875391960144] [-0.032460737973451614:1.9696733951568604] [-1.9507771730422974:0.20298968255519867] [-1.9990826845169067:0.14988890290260315] [-2.0212781429290771:0.17899905145168304] [-1.975927472114563:0.15089763700962067] [-0.18526673316955566:1.8940619230270386] [-1.8549034595489502:0.024316653609275818] [0.36499258875846863:3.1527948379516602] [-1.5347604751586914:0.060742352157831192] [-0.25410586595535278:1.8150116205215454] [-1.9540901184082031:0.16430395841598511] [0.88527339696884155:3.0285887718200684] [-1.8898015022277832:0.21856333315372467] [-2.0484492778778076:0.074426218867301941] [-1.8814386129379272:0.28456494212150574] [-2.8083279132843018:-1.1111234426498413] [-2.080780029296875:0.21241536736488342] [-1.8408764600753784:0.074400812387466431] [-2.0380020141601562:-0.056897085160017014] [-0.24178929626941681:2.0164506435394287] [-1.9543125629425049:0.27688714861869812] [-1.8191384077072144:0.20075848698616028] [0.19232560694217682:2.004645824432373] [-1.8774733543395996:-0.088679410517215729] [-0.014453480951488018:1.6594679355621338] [-0.12323883920907974:1.9116066694259644] [-1.9649617671966553:0.25136381387710571] [0.54008793830871582:3.0584976673126221] [-2.0347328186035156:0.15361271798610687] [-0.26810038089752197:1.8647739887237549] [0.11222928017377853:1.8561757802963257] [-2.8267438411712646:-1.1328330039978027] [1.1400736570358276:3.0678896903991699] [-1.9469088315963745:0.33655110001564026] [-1.6531463861465454:0.1113479882478714] [-0.052768278867006302:2.0306656360626221] [-1.9367915391921997:0.33144897222518921] [-0.10498199611902237:1.9594093561172485] [-2.0017011165618896:0.28020843863487244] [-0.24986447393894196:1.9444078207015991] [-1.5791943073272705:0.1301596611738205] [-1.9919008016586304:0.22779557108879089] [-2.1568636894226074:0.078198172152042389] [-1.7968271970748901:-0.0029176799580454826] [-3.1060216426849365:-0.92412769794464111] [-2.7328248023986816:-1.127532958984375] [0.68293637037277222:2.955467700958252] [-0.00036339546204544604:1.9442176818847656] [-1.7100074291229248:0.15398609638214111] [-0.18635128438472748:1.8498519659042358] [-1.8804904222488403:0.21302805840969086] [-2.4661424160003662:-0.32745933532714844] [0.36376217007637024:1.9305499792098999] [-0.19328279793262482:1.9219774007797241] [-1.9874454736709595:0.26084122061729431] [-0.21697303652763367:1.906764030456543] [-0.22163651883602142:1.8909389972686768] [-1.8903512954711914:0.32677379250526428] [-1.7991048097610474:-0.090797372162342072] [-0.38088160753250122:1.8479827642440796] [1.1445459127426147:2.9501488208770752] [0.19252732396125793:1.8291178941726685] [-2.0117056369781494:0.16976368427276611] [-0.24998195469379425:1.9201635122299194] [0.36448946595191956:3.1439566612243652] [-0.2382141649723053:1.8426634073257446] [-2.8723227977752686:-0.46024522185325623] [-0.00069487252039834857:1.8241472244262695] [-4.2726030349731445:-0.92474597692489624] [-0.24571484327316284:1.8325715065002441] [-1.4963350296020508:0.46006888151168823] [-3.3958239555358887:-1.1194515228271484] [-0.095372296869754791:1.906415581703186] [-0.065999321639537811:1.9540038108825684] [0.056326624006032944:1.9814469814300537] [-1.6733198165893555:0.36047354340553284] [0.88885319232940674:4.130582332611084] [-1.7517212629318237:0.26867899298667908] [-3.0663819313049316:-0.40997636318206787] [-0.22671543061733246:1.8708529472351074] [-0.086308285593986511:2.068760871887207] [-1.7271002531051636:0.0044145910069346428] [-0.093946360051631927:1.6383382081985474] [-1.8650414943695068:0.22620689868927002] [0.36537328362464905:2.9081971645355225] [0.19257280230522156:1.7649015188217163] [-0.11090083420276642:1.9093157052993774] [-2.8781783580780029:-1.1535371541976929] [0.3809967041015625:3.0159742832183838] [-1.7890807390213013:0.21130432188510895] [0.15283799171447754:2.0046720504760742] [-1.6547389030456543:0.0052827699109911919] [-1.853445291519165:0.32106691598892212] [-0.2007165253162384:1.9737732410430908] [-0.24690379202365875:1.9715101718902588] [-1.8855602741241455:-0.031371623277664185] [0.19544525444507599:1.9560158252716064] [-0.23929810523986816:2.0176103115081787] [-0.048252914100885391:1.7850046157836914] [-0.13032501935958862:2.0321512222290039] [0.12151782959699631:1.9753117561340332] [-2.0034158229827881:-0.33987981081008911] [0.15069171786308289:2.0603668689727783] [-0.3167634904384613:1.8694138526916504] [-2.0707178115844727:-0.088573522865772247] [0.32533586025238037:2.5516173839569092] [0.0555923692882061:2.0704944133758545] [1.0970195531845093:3.1190292835235596] [-1.9596066474914551:0.30590537190437317] [0.73880231380462646:3.2084603309631348] [-1.864285945892334:0.34400898218154907] [-0.3000374436378479:1.9253557920455933] [-0.19756077229976654:2.0598318576812744] [-2.9057090282440186:-0.72354859113693237] [0.096188351511955261:2.0847783088684082] [0.079843148589134216:2.075627326965332] [-1.9585024118423462:-0.23906151950359344] [0.90247517824172974:3.5190339088439941] [-0.077048465609550476:1.811089038848877] [-0.14022205770015717:2.031928539276123] [-0.23088465631008148:1.960330605506897] [-2.0131599903106689:0.16135510802268982] [0.28207030892372131:2.6435441970825195] [0.52499514818191528:3.0902876853942871] [-2.0847373008728027:0.10422271490097046] [-3.2228677272796631:-1.1428641080856323] [-1.937045693397522:0.20007278025150299] [-2.0799269676208496:-0.29975974559783936] [-1.7923010587692261:-0.040972072631120682] [-1.7131773233413696:0.11591557413339615] [-1.9809359312057495:0.19111940264701843] [0.98445886373519897:4.0564398765563965] [-2.0496463775634766:0.10106883198022842] [0.91785502433776855:2.9229657649993896] [0.99613666534423828:3.8921666145324707] [-1.8319200277328491:0.18616603314876556] [-0.066395238041877747:1.9881522655487061] [-0.15766365826129913:1.9958455562591553] [-1.9942834377288818:0.23915095627307892] [-1.7200011014938354:0.15070763230323792] [-1.8719521760940552:0.20555314421653748] [1.0336936712265015:3.4342539310455322] [1.2490675449371338:2.7084896564483643] [-0.18074540793895721:2.0421841144561768] [-0.20310848951339722:1.8409374952316284] [0.36208167672157288:2.9087846279144287] [-2.8607707023620605:-1.122179388999939] [-3.2080543041229248:-0.92622041702270508] [-2.0037190914154053:0.14053568243980408] [-1.5282262563705444:-0.01010405644774437] [-0.13395386934280396:2.0022599697113037] [-0.15958476066589355:2.0815014839172363] [-1.9557015895843506:0.32302311062812805] [-2.0090656280517578:0.008669205941259861] [-0.34764879941940308:1.8576308488845825] [-3.1657619476318359:-0.49587371945381165] [0.036916401237249374:1.8182775974273682] [-0.11680324375629425:1.9911412000656128] [-1.9837844371795654:0.30908933281898499] [-1.7441703081130981:0.12448711693286896] [0.23081089556217194:2.0624263286590576] [-1.9337892532348633:0.24154789745807648] [-0.25657486915588379:2.0251901149749756] [1.1492798328399658:3.0835404396057129] [-1.8024691343307495:0.14928561449050903] [0.97195816040039062:3.8515183925628662] [0.65607118606567383:3.0371971130371094] [-1.9971240758895874:0.13580642640590668] [-1.7265589237213135:-0.1368134617805481] [-0.18018481135368347:1.9978610277175903] [-4.0249848365783691:-0.92981433868408203] [-1.9741706848144531:0.26965510845184326] [-3.1452882289886475:-0.49694865942001343] [-1.9538834095001221:0.22446499764919281] [-3.0662283897399902:-0.4793810248374939] [0.28568929433822632:2.0891623497009277] [-2.1284666061401367:-0.032499298453330994] [-0.31351518630981445:1.9838722944259644] [-0.27935746312141418:2.0032448768615723] [-2.0087475776672363:-0.11122211813926697] [-0.098264843225479126:1.9450365304946899] [-0.13220752775669098:1.9977289438247681] [-0.21691417694091797:1.9592386484146118] [-0.35373356938362122:1.9418376684188843] [1.1111658811569214:3.2531871795654297] [-0.4033789336681366:1.7937542200088501] [-3.0712044239044189:-0.39473572373390198] [-0.13646520674228668:2.0869319438934326] [-0.25993689894676208:1.8158296346664429] [0.039291076362133026:2.0970134735107422] [-1.9772771596908569:0.041961118578910828] [1.0033683776855469:3.0428702831268311] [-1.9707802534103394:0.10602246224880219] [-0.099865704774856567:1.9558676481246948] [-1.9114713668823242:0.23191377520561218] [-1.5735501050949097:0.33088180422782898] [-3.0134079456329346:-0.29737415909767151] [-2.3038120269775391:-0.1402757465839386] [0.32871013879776001:2.4647910594940186] [-0.010637483559548855:1.7121918201446533] [-1.9461046457290649:0.17078791558742523] [-1.8289182186126709:0.089269518852233887] [-0.011352468281984329:1.6929621696472168] [1.0000135898590088:3.7497496604919434] [0.51744461059570312:3.2204091548919678] [0.038949474692344666:1.9607717990875244] [-1.9037909507751465:0.0017036366043612361] [-1.5159152746200562:0.18916250765323639] [-1.8708446025848389:0.18480357527732849] [-0.071512527763843536:1.8654528856277466] [-0.25978964567184448:1.976953387260437] [-0.13228251039981842:1.8637378215789795] [-0.0036325764376670122:1.9364502429962158] [0.24447938799858093:2.0017940998077393] [-0.3250444233417511:1.903994083404541] [-0.13217175006866455:1.8114112615585327] [0.81178498268127441:2.5518724918365479] [-1.9409765005111694:0.223178431391716] [0.37634912133216858:3.2185237407684326] [-0.055978413671255112:1.4813276529312134] [-1.8156570196151733:-0.06209230050444603] [-1.9593266248703003:0.33572807908058167] [-1.9097601175308228:-0.14846760034561157] [-2.0074169635772705:0.058435797691345215] [-0.23729690909385681:1.9565895795822144] [-0.16227491199970245:1.9703251123428345] [1.1986576318740845:2.838700532913208] [1.2997810840606689:2.8399710655212402] [-3.9140241146087646:-1.0125505924224854] [-1.7443954944610596:0.026119109243154526] [-2.3841350078582764:-0.21616104245185852] [1.1903423070907593:2.9185919761657715] [-0.19618512690067291:1.9582933187484741] [-0.19270488619804382:1.9134155511856079] [-1.8972073793411255:0.25498265027999878] [-0.29225707054138184:1.9609229564666748] [-0.029132407158613205:2.0504662990570068] [-2.0665535926818848:0.20880089700222015] [-2.0676336288452148:-0.19041945040225983] [-1.8347223997116089:0.039410445839166641] [-3.7736465930938721:-0.8302454948425293] [0.98295313119888306:3.7482051849365234] [-2.6673388481140137:-1.3264811038970947] [0.79002445936203003:2.7186546325683594] [-1.7102776765823364:-0.037352226674556732] [-0.21587264537811279:1.8092031478881836] [-0.29813191294670105:1.9316515922546387] [-3.0982701778411865:-0.37143650650978088] [-0.44785547256469727:1.9890837669372559] [-1.7469290494918823:0.26362133026123047] [1.2302459478378296:2.7467277050018311] [-0.16814666986465454:2.0620825290679932] [-0.1870657205581665:1.9981802701950073] [-1.8974102735519409:0.22803357243537903] [-0.14979484677314758:1.8207510709762573] [-0.14324817061424255:2.0729415416717529] [-2.0142748355865479:0.082321301102638245] [-1.9670464992523193:0.3008207380771637] [0.21618379652500153:1.9500753879547119] [1.3222203254699707:2.7764809131622314] [-0.1077965572476387:2.0329976081848145] [-0.22063349187374115:1.8724020719528198] [1.2050185203552246:2.6948566436767578] [-0.055769640952348709:2.044677734375] [-0.032118547707796097:2.0285885334014893] [0.98466873168945312:3.6205377578735352] [0.24129405617713928:1.980122447013855] [1.1556855440139771:2.9400570392608643] [-3.93147873878479:-0.92499029636383057] [0.0022986042313277721:1.7860994338989258] [-0.10020153224468231:2.1249358654022217] [-0.079398728907108307:1.7778463363647461] [-1.7974452972412109:0.31114193797111511] [0.2062753438949585:1.5991144180297852] [-0.14970710873603821:1.9644632339477539] [1.1772918701171875:2.8276658058166504] [0.06269681453704834:1.9777662754058838] [-1.7164375782012939:0.22782254219055176] [-2.0103678703308105:0.33043754100799561] [-0.18946453928947449:2.0243246555328369] [-1.9781444072723389:-0.026451975107192993] [-0.087652288377285004:1.5024374723434448] [-2.0607824325561523:-0.16866205632686615] [-1.9266208410263062:0.0045536006800830364] [-3.7862734794616699:-1.0612826347351074] [-3.0560739040374756:-0.42533618211746216] [1.1705175638198853:2.7110419273376465] [-0.30318641662597656:1.9401353597640991] [-0.062918826937675476:2.0189533233642578] [-1.8318898677825928:0.30777579545974731] [-2.0037987232208252:0.013787388801574707] [-1.9526650905609131:0.2646840512752533] [-1.9912256002426147:0.046249423176050186] [-1.1309791803359985:0.58172506093978882] [-0.011891026049852371:2.0181725025177002] [-1.8984489440917969:0.24760065972805023] [-1.9023673534393311:0.065134771168231964] [-0.16091154515743256:1.9296766519546509] [-2.0471410751342773:-0.1374143660068512] [1.2013458013534546:2.9448361396789551] [0.020225875079631805:2.1060125827789307] [0.17202073335647583:1.920555591583252] [0.42420801520347595:2.5471847057342529] [-1.8285092115402222:0.13267438113689423] [-0.046567875891923904:2.0701596736907959] [0.20781682431697845:1.9945054054260254] [-1.9408829212188721:0.18147842586040497] [-3.8836591243743896:-0.98320269584655762] [-1.9127305746078491:0.19312968850135803] [-2.0654535293579102:0.22573244571685791] [0.59590035676956177:2.7536942958831787] [0.063770443201065063:1.8729531764984131] [-1.998788595199585:0.15391068160533905] [-2.0009069442749023:0.20717513561248779] [-2.9407632350921631:-0.90275430679321289] [-1.7862600088119507:-0.011050310917198658] [-3.5824077129364014:-0.84043991565704346] [0.31558099389076233:2.7051002979278564] [-1.6864750385284424:0.047598801553249359] [-1.9939155578613281:0.28780072927474976] [0.24128071963787079:2.0991935729980469] [0.49198028445243835:3.0989770889282227] [0.052905566990375519:1.9695959091186523] [-3.1807293891906738:-0.57679533958435059] [-0.074869990348815918:2.0591683387756348] [-1.7039827108383179:0.29076054692268372] [-1.8883461952209473:0.10137373208999634] [-3.027895450592041:-0.5250096321105957] [-2.1093544960021973:-0.015242005698382854] [-0.27212211489677429:2.011171817779541] [-1.9484338760375977:0.30069994926452637] [-1.9790748357772827:0.10287852585315704] [-2.0135469436645508:0.12903457880020142] [-1.8281278610229492:-0.12267035245895386] [-1.9004504680633545:0.11867570132017136] [-1.4514752626419067:-0.0043328069150447845] [-2.9307141304016113:-0.92834216356277466] [-0.17696294188499451:1.7984155416488647] [-2.0440835952758789:0.13284444808959961] [-0.45248383283615112:1.3344442844390869] [-1.9625822305679321:0.26387888193130493] [-1.9216611385345459:0.31116986274719238] [0.074130833148956299:2.0159258842468262] [-0.068821102380752563:1.9077013731002808] [0.0059950998984277248:1.6931984424591064] [-0.18388988077640533:1.9009788036346436] [-2.0243611335754395:0.18856053054332733] [-1.9999871253967285:0.11421273648738861] [1.2582855224609375:2.7827231884002686] [-1.9149551391601562:0.32153087854385376] [-0.13442358374595642:2.0951211452484131] [-0.028774727135896683:1.6591157913208008] [-1.5556720495223999:-0.073100529611110687] [-0.092898838222026825:1.9539973735809326] [-1.8557238578796387:0.30761530995368958] [-0.065326660871505737:1.5406984090805054] [-2.0668144226074219:0.10915777832269669] [0.98649221658706665:2.958646297454834] [0.042311426252126694:2.0849032402038574] [-1.8827991485595703:0.24807429313659668] [-2.0427918434143066:0.1921570748090744] [-2.0278151035308838:0.3196309506893158] [-2.8348772525787354:-1.1578330993652344] [0.071480013430118561:1.962415337562561] [-0.28337764739990234:2.0081787109375] [-1.9275503158569336:0.31014654040336609] [-0.25865352153778076:2.0585591793060303] [-3.0996878147125244:-0.65580493211746216] [0.25347968935966492:2.0362958908081055] [-1.7976522445678711:0.11842735111713409] [-1.879228949546814:0.19970251619815826] [-0.12323471903800964:1.9444859027862549] [-1.9630045890808105:0.22813427448272705] [-0.20727503299713135:1.9248477220535278] [-3.5565056800842285:-1.0995283126831055] [-0.13339225947856903:2.0783398151397705] [-4.0339751243591309:-1.0215126276016235] [-2.7069714069366455:0.3949120044708252] [-0.28179574012756348:1.9744706153869629] [-0.13636413216590881:1.8378514051437378] [-1.7559279203414917:0.24520879983901978] [0.27426666021347046:2.9045572280883789] [-2.0763101577758789:-0.0029555060900747776] [0.64239263534545898:2.7884528636932373] [-1.9403722286224365:0.16225893795490265] [-0.28110939264297485:1.7263177633285522] [-2.0845813751220703:0.14876651763916016] [0.020679254084825516:1.8789132833480835] [-0.22264549136161804:2.0251529216766357] [-1.9698365926742554:0.19908301532268524] [-2.9852545261383057:-1.2063509225845337] [0.44863578677177429:3.1430890560150146] [1.2260235548019409:2.655261754989624] [-3.0783040523529053:-1.018409252166748] [-0.066131837666034698:1.5889949798583984] [-2.0260317325592041:-0.21057793498039246] [-2.0799775123596191:0.17596825957298279] [-1.8759450912475586:0.27691921591758728] [-0.22805681824684143:1.896342396736145] [-0.16820298135280609:1.7703365087509155] [0.30992317199707031:3.0122900009155273] [-0.11760084331035614:2.1453478336334229] [0.096264928579330444:1.8671427965164185] [-0.26382574439048767:1.9159338474273682] [-1.840944766998291:0.25937214493751526] [1.1038517951965332:3.2380752563476562] [-2.0458719730377197:0.08279186487197876] [-2.6360046863555908:-0.48278865218162537] [-1.880246639251709:0.3039412796497345] [-1.9989384412765503:0.17985406517982483] [-2.0740067958831787:0.1490100622177124] [-0.19639880955219269:1.9577938318252563] [-1.9909526109695435:-0.18439994752407074] [-2.0065851211547852:0.25018486380577087] [-0.27041614055633545:1.9537824392318726] [-0.10911703854799271:1.8456614017486572] [-3.5159530639648438:-1.0623292922973633] [0.35442346334457397:2.6085937023162842] [-2.0556368827819824:0.09899633377790451] [-2.9963574409484863:-1.2096314430236816] [-0.16619718074798584:2.1495132446289062] [-2.1409132480621338:-0.27428016066551208] [-2.0576667785644531:0.07297060638666153] [-0.27479913830757141:1.6724034547805786] [-1.9999161958694458:0.31059858202934265] [-0.1749098151922226:2.0373694896697998] [1.1232880353927612:3.0267882347106934] [-0.18849755823612213:1.953215479850769] [-1.928167462348938:0.17601390182971954] [-0.1029687374830246:1.9821584224700928] [1.0036360025405884:3.6469013690948486] [-3.762742280960083:-1.0112025737762451] [0.17068883776664734:1.9499059915542603] [1.1111016273498535:3.2762775421142578] [0.32359430193901062:2.4037110805511475] [-1.9137039184570312:0.26596367359161377] [-3.3882715702056885:-1.0150377750396729] [-2.8595283031463623:-1.1948148012161255] [-1.9855196475982666:0.18730476498603821] [-0.083686351776123047:1.9479724168777466] [-0.15281112492084503:2.1288104057312012] [-0.31398677825927734:2.076974630355835] [-1.7803195714950562:0.3910839855670929] [-1.8825998306274414:0.29400968551635742] [-1.5598059892654419:0.098780110478401184] [-1.8231489658355713:0.14747147262096405] [-2.0820565223693848:-0.12844157218933105] [-0.23997078835964203:1.8779255151748657] [-0.18261606991291046:1.9519801139831543] [-1.9703230857849121:0.38078713417053223] [-2.0943734645843506:-0.22498376667499542] [-2.1454181671142578:-0.19536665081977844] [1.03299880027771:3.5516588687896729] [-2.1315758228302002:-0.088557474315166473] [-1.9760029315948486:0.00074707769090309739] [-2.6190242767333984:-0.22307808697223663] [-0.026632796972990036:1.881625771522522] [-1.9347481727600098:0.14134600758552551] [-1.9333318471908569:0.29057192802429199] [-2.1407864093780518:-0.15394289791584015] [-0.034355103969573975:2.0857980251312256] [-0.57675188779830933:2.553821325302124] [-0.37227755784988403:1.8910174369812012] [0.30700606107711792:2.3229665756225586] [-0.17203022539615631:1.8920639753341675] [-2.7700047492980957:-1.2478213310241699] [1.1449729204177856:3.0769009590148926] [-0.17716327309608459:1.8783235549926758] [-3.4850621223449707:-1.0523766279220581] [-1.8526023626327515:-0.0056297997944056988] [-0.2377067357301712:1.9495856761932373] [-2.1073575019836426:-0.086929328739643097] [-0.097207598388195038:2.0395286083221436] [1.0858248472213745:3.3376743793487549] [-2.8442313671112061:-1.1588817834854126] [0.44854876399040222:3.0849370956420898] [-0.20915021002292633:1.9224086999893188] [-1.7729657888412476:0.079716607928276062] [-1.896934986114502:0.26511240005493164] [-1.7639813423156738:0.067708522081375122] [-1.9684230089187622:0.21706286072731018] [-2.0249433517456055:0.24524486064910889] [-1.7832599878311157:0.27081194519996643] [-1.8958511352539062:0.21573576331138611] [-2.0104625225067139:0.21880653500556946] [0.40399789810180664:2.9364407062530518] [-2.0855071544647217:0.18361562490463257] [-0.0089312111958861351:2.095973014831543] [-1.6896127462387085:0.2801368236541748] [-0.11112488806247711:1.8990877866744995] [-2.0659406185150146:-0.2420991063117981] [-0.16661365330219269:1.9858037233352661] [0.41967803239822388:3.206355094909668] [-1.9323041439056396:0.15889489650726318] [-0.14803525805473328:2.9710495471954346] [-1.8246954679489136:0.13661164045333862] [-1.8383831977844238:0.36224055290222168] [-0.31981444358825684:1.8921297788619995] [-1.9535638093948364:0.24082507193088531] [-3.7821259498596191:-0.83999842405319214] [-1.7107946872711182:0.50395137071609497] [-1.853474497795105:-0.054696507751941681] [0.0036383944097906351:2.0189883708953857] [-0.16184347867965698:1.9223062992095947] [-1.6978532075881958:0.15805290639400482] [-2.692072868347168:-0.52784723043441772] [0.96565353870391846:4.032813549041748] [-0.42530310153961182:1.7265592813491821] [-2.3655662536621094:-0.18042847514152527] [0.058540273457765579:1.9005278348922729] [-1.877708911895752:0.0011162991868332028] [-3.5386791229248047:-0.78222537040710449] [0.10617545247077942:2.1032698154449463] [-0.17772950232028961:1.9240289926528931] [-2.1274518966674805:0.087212786078453064] [-0.27153944969177246:1.8941364288330078] [0.75835877656936646:3.0728604793548584] [1.1676024198532104:2.8561780452728271] [-0.158058762550354:1.7274652719497681] [-2.0579605102539062:-0.053128063678741455] [0.0078932913020253181:2.1234869956970215] [-2.562016487121582:0.21090677380561829] [-3.9156608581542969:-0.95540225505828857] [-1.4657900333404541:0.48874238133430481] [1.0025120973587036:3.8725941181182861] [-0.23302754759788513:1.9834625720977783] [-0.2223019152879715:1.9492561817169189] [-0.27875977754592896:1.950869083404541] [0.62513619661331177:2.9615676403045654] [-1.9268283843994141:0.29515814781188965] [-0.20080552995204926:1.999089241027832] [0.001991604920476675:2.007169246673584] [0.1091451421380043:2.080235481262207] [-2.0091829299926758:-0.04594629630446434] [-0.039986908435821533:2.0160784721374512] [1.0132670402526855:3.960068941116333] [0.23640230298042297:1.9257816076278687] [-0.0293556097894907:1.692491888999939] [-0.39179599285125732:2.6841862201690674] [-1.8793811798095703:0.31151613593101501] [-1.9626549482345581:0.091787606477737427] [-1.7030069828033447:0.15180458128452301] [-0.25501212477684021:1.7738040685653687] [-0.30616766214370728:2.0035920143127441] [-1.8855422735214233:0.23162949085235596] [-0.071995407342910767:1.9881758689880371] [-0.31626850366592407:1.5625762939453125] [-2.0032777786254883:0.0011629000073298812] [1.1292508840560913:3.1320102214813232] [-1.8724573850631714:0.022917035967111588] [0.66071587800979614:2.8481917381286621] [-1.9819917678833008:0.18856213986873627] [1.0396581888198853:3.9580073356628418] [-3.6122095584869385:-1.0189831256866455] [-0.22029018402099609:2.0120553970336914] [-1.7284532785415649:0.20472510159015656] [-1.9965335130691528:0.28897109627723694] [0.34418109059333801:2.5999801158905029] [0.043524924665689468:1.9755501747131348] [-0.011112027801573277:1.9232561588287354] [-0.2022392600774765:1.9094696044921875] [-1.8043155670166016:-0.037163633853197098] [-1.9838520288467407:0.10522622615098953] [-2.1112737655639648:0.056037794798612595] [0.33628043532371521:2.1473743915557861] [-0.097042731940746307:1.7318171262741089] [-0.30856463313102722:1.7410321235656738] [-0.092137955129146576:1.8739453554153442] [0.035908829420804977:2.0902450084686279] [-2.0420100688934326:-0.069025769829750061] [-0.041252687573432922:2.0063581466674805] [-0.28396895527839661:1.8767766952514648] [-0.072050705552101135:1.9716075658798218] [-2.0479090213775635:0.18765082955360413] [0.008860291913151741:1.9170820713043213] [-0.24275015294551849:1.9967637062072754] [-1.9632543325424194:0.30553078651428223] [-0.16233697533607483:1.9566773176193237] [-0.19631069898605347:1.9471437931060791] [-2.0329399108886719:0.1589856743812561] [0.71627181768417358:3.2317752838134766] [-1.9342247247695923:-0.19679407775402069] [-1.9629853963851929:-0.23456424474716187] [-0.27134042978286743:1.9772603511810303] [0.5053369402885437:3.1605703830718994] [-1.7191863059997559:0.29342401027679443] [-2.7508337497711182:-0.67156833410263062] [-1.9242119789123535:0.333436518907547] [0.085934653878211975:1.8674336671829224] [-1.9284530878067017:0.29509904980659485] [-3.7518618106842041:-0.92341393232345581] [-1.5860418081283569:0.097400352358818054] [-0.30190134048461914:1.8845863342285156] [0.42638066411018372:2.5745992660522461] [-0.18495596945285797:1.4341195821762085] [-0.26048451662063599:1.9008849859237671] [-0.024760307744145393:2.0143697261810303] [-0.0035801304038614035:1.5276553630828857] [-1.8357720375061035:0.43278667330741882] [-1.8988144397735596:-0.16245657205581665] [-1.8867039680480957:0.42271855473518372] [-0.11335545778274536:2.0331511497497559] [-2.5996434688568115:0.35517197847366333] [-0.37874862551689148:1.6272146701812744] [-0.048644442111253738:1.515877366065979] [-0.12091866135597229:1.8439795970916748] [-0.13788966834545135:2.0259420871734619] [-2.0748977661132812:0.15125164389610291] [-0.12488381564617157:1.8424221277236938] [-0.046474434435367584:1.8949815034866333] [-0.1841847151517868:2.0589573383331299] [0.12747833132743835:1.9861117601394653] [-2.7443747520446777:-1.1316356658935547] [-2.0199766159057617:0.15795318782329559] [-1.8843412399291992:0.2575262188911438] [-1.9196312427520752:0.29250389337539673] [-0.18511418998241425:2.0129327774047852] [-1.9615342617034912:0.23416215181350708] [-2.113985538482666:-0.20514674484729767] [-2.1212747097015381:0.060476731508970261] [-0.26416516304016113:1.9019260406494141] [0.026034845039248466:2.0719072818756104] [-3.5844135284423828:-1.0192893743515015] [-1.8677194118499756:0.053999610245227814] [-3.4941949844360352:-1.0899540185928345] [-3.0976371765136719:-0.57872986793518066] [-2.8898038864135742:-1.0387730598449707] [-0.43470486998558044:1.5700105428695679] [-0.096533678472042084:2.1897592544555664] [-1.8958985805511475:0.078995898365974426] [0.13782653212547302:1.7951167821884155] [-0.17392316460609436:1.9561519622802734] [0.49655219912528992:3.2193598747253418] [-2.8176839351654053:-1.2019976377487183] [-3.1260390281677246:-0.68584424257278442] [-0.14031083881855011:2.0892503261566162] [-1.9123903512954712:-0.078639790415763855] [-1.9163296222686768:0.32361629605293274] [0.95952767133712769:3.3603434562683105] [-0.067034251987934113:1.9858033657073975] [-2.1093640327453613:-0.11216840893030167] [-2.0119314193725586:0.046246588230133057] [-1.9923849105834961:0.14649385213851929] [-0.018430886790156364:1.8126128911972046] [-1.9597287178039551:0.13972266018390656] [-0.033055420964956284:2.0559096336364746] [-2.0364248752593994:-0.0055414759553968906] [-0.15196363627910614:2.0046136379241943] [0.0015604783548042178:1.9902856349945068] [1.2297841310501099:2.7510614395141602] [-0.41237324476242065:1.7617534399032593] [1.0397017002105713:3.7386782169342041] [-2.0710608959197998:0.018613483756780624] [1.3406916856765747:2.7681820392608643] [0.46109148859977722:2.7775163650512695] [-1.9797312021255493:0.055670447647571564] [-0.030362710356712341:2.0648980140686035] [1.0819237232208252:2.665668249130249] [-3.0833745002746582:-0.41618436574935913] [0.46835705637931824:3.1293115615844727] [-0.1085667759180069:2.1303730010986328] [-0.12819172441959381:1.803638219833374] [-1.963524341583252:0.20434793829917908] [-0.2159724235534668:1.9748352766036987] [0.24254973232746124:1.8534693717956543] [-0.16973575949668884:1.8106365203857422] [-1.943144679069519:0.27969405055046082] [-1.7685894966125488:0.13415622711181641] [-1.8717923164367676:0.056817665696144104] [0.946358323097229:4.0078835487365723] [-3.1661005020141602:-1.1298016309738159] [-0.057549230754375458:1.9500434398651123] [0.20524550974369049:2.257399320602417] [-1.8771337270736694:0.30972957611083984] [-1.864780068397522:0.42414236068725586] [0.38003221154212952:3.0912811756134033] [-0.021485192701220512:1.9996287822723389] [-1.9922661781311035:-0.11609501391649246] [-2.002964973449707:-0.021804474294185638] [-3.374711275100708:-0.96528798341751099] [-0.060813106596469879:1.9108495712280273] [1.0171753168106079:2.5049562454223633] [-1.989620566368103:0.27260076999664307] [-1.82305908203125:0.42925345897674561] [0.096997037529945374:2.0529334545135498] [-0.0043205828405916691:2.1997249126434326] [1.2010505199432373:2.7703206539154053] [-0.34951820969581604:1.8548511266708374] [1.2483839988708496:2.9086239337921143] [-2.0494828224182129:0.1805139034986496] [-1.9797091484069824:0.23775935173034668] [-0.075329914689064026:2.0903549194335938] [-2.0069434642791748:0.22287911176681519] [0.24106110632419586:2.0622148513793945] [-0.20085100829601288:2.0411515235900879] [0.11245594918727875:1.9857916831970215] [-1.83655846118927:0.15484824776649475] [-4.1311321258544922:-0.9284558892250061] [0.0057616839185357094:2.0727109909057617] [-3.6295216083526611:-1.0337482690811157] [0.056739222258329391:1.6575549840927124] [0.69164830446243286:2.7030565738677979] [-0.083649404346942902:1.9013532400131226] [-3.1824302673339844:-0.43978443741798401] [-0.097691945731639862:1.9804484844207764] [-0.16438031196594238:1.810978889465332] [0.11359842121601105:1.9521559476852417] [-2.9912750720977783:-0.43805265426635742] [-0.030416356399655342:2.0306527614593506] [-0.24261412024497986:1.8328659534454346] [-3.7488181591033936:-1.0082896947860718] [-1.7694761753082275:0.094086520373821259] [-0.15077848732471466:1.8815715312957764] [0.051176890730857849:1.9218937158584595] [-1.4850986003875732:0.26750689744949341] [0.04786398634314537:1.824987530708313] [0.18220590054988861:2.0950689315795898] [0.057192698121070862:2.1420092582702637] [-1.7633637189865112:-0.026367923244833946] [0.29616686701774597:2.5695545673370361] [-0.1747124195098877:2.9559907913208008] [-1.9552439451217651:0.11146509647369385] [-1.8017802238464355:0.29016569256782532] [-2.0113496780395508:0.00080791895743459463] [-1.9467869997024536:0.25428369641304016] [0.00091681547928601503:1.9737867116928101] [0.41058787703514099:3.0490820407867432] [-1.0685112476348877:0.72759121656417847] [0.035562247037887573:1.9365346431732178] [-1.8723520040512085:0.34982416033744812] [-0.15276023745536804:2.0751469135284424] [-0.17486801743507385:2.0438454151153564] [-1.8653541803359985:0.087443910539150238] [-1.9357985258102417:0.15383824706077576] [-1.700636625289917:-0.011135544627904892] [-1.7728792428970337:-0.01488554198294878] [-1.9259878396987915:0.081750519573688507] [0.092642329633235931:1.9136201143264771] [-1.9434452056884766:0.25450164079666138] [-0.35223740339279175:1.7862691879272461] [-2.0231945514678955:0.081327334046363831] [-1.8854216337203979:-0.033087547868490219] [-2.0542924404144287:0.045982863754034042] [-1.8179397583007812:0.20497101545333862] [-1.9762223958969116:0.30184206366539001] [-0.11680921912193298:2.0330202579498291] [-1.8901866674423218:0.37051358819007874] [-1.9751448631286621:0.076405078172683716] [-0.37128221988677979:1.8307235240936279] [-1.6991562843322754:0.1071789413690567] [-1.8319849967956543:0.069099694490432739] [-1.9900295734405518:0.09918484091758728] [0.36682814359664917:2.3188426494598389] [-1.8236925601959229:0.21670591831207275] [1.1214706897735596:2.8210732936859131] [-1.7741250991821289:0.040077976882457733] [-2.0031757354736328:0.022441040724515915] [-0.21572756767272949:1.7232034206390381] [-0.10888015478849411:1.8804167509078979] [-3.9716198444366455:-1.0293302536010742] [-0.16776631772518158:2.0080280303955078] [-2.0346720218658447:0.13633909821510315] [0.16031491756439209:1.9324471950531006] [-0.24838034808635712:2.0468513965606689] [0.27178052067756653:1.9617128372192383] [-1.8992666006088257:0.33159106969833374] [-2.0493957996368408:0.16115714609622955] [0.54003828763961792:3.0884754657745361] [-1.9229248762130737:0.31222474575042725] [-1.8528206348419189:0.36244127154350281] [-2.8752613067626953:-1.229440450668335] [-0.23260709643363953:1.642818808555603] [-0.11383531242609024:1.8735799789428711] [-1.6353816986083984:0.046955641359090805] [-3.1391360759735107:-0.56814497709274292] [-0.084321923553943634:1.9224214553833008] [0.031710930168628693:1.8649725914001465] [-3.6500396728515625:-0.95849543809890747] [-2.7610580921173096:-1.3055723905563354] [-1.70881187915802:0.35690596699714661] [-3.443615198135376:-1.010647177696228] [-1.937130331993103:0.2071942538022995] [-2.0049564838409424:0.24043512344360352] [-1.9718133211135864:0.24424581229686737] [-2.004037618637085:0.10518063604831696] [-1.9837241172790527:0.11527452617883682] [-0.23740485310554504:2.758134126663208] [-1.9386270046234131:0.23712146282196045] [-0.25399252772331238:1.8831114768981934] [-2.01849365234375:-0.19297260046005249] [1.2196506261825562:2.7232339382171631] [0.69165652990341187:3.1017675399780273] [1.0315885543823242:3.3175609111785889] [0.96317470073699951:3.7601497173309326] [-0.0089834509417414665:1.5833268165588379] [-0.037959486246109009:2.0123534202575684] [-2.817786693572998:-1.0657880306243896] [-1.4468249082565308:0.2300354391336441] [-3.0248153209686279:-0.70703625679016113] [-0.16680051386356354:2.9013607501983643] [-3.1160626411437988:-1.1278800964355469] [-2.792041540145874:-1.3589587211608887] [-3.0033369064331055:-0.34968525171279907] [-2.0319929122924805:0.19944500923156738] [-2.0201723575592041:0.13665704429149628] [-1.9560781717300415:-0.035707715898752213] [0.96945911645889282:3.3792128562927246] [-0.30630877614021301:1.5504519939422607] [-0.14536361396312714:1.9522467851638794] [0.10433924198150635:1.8249298334121704] [0.20062248408794403:1.8737766742706299] [-2.0612332820892334:0.14986006915569305] [0.65781104564666748:2.8419828414916992] [0.047393392771482468:1.4801567792892456] [0.42426148056983948:2.9742996692657471] [1.1326473951339722:3.1090061664581299]
tree_sizes=2854 2864 2869 2877 2880 2878 2871 2897 2879 2890 2881 2869 2873 2838 2831 2814 2826 2832 2847 2853 2852 2872 2849 2865 2851 2856 2860 2843 2850 2868 2857 2868 2862 2868 2899 2846 2922 2853 2896 2848 2867 2843 2941 2913 2912 2873 2905 2928 2882 2854 2855 2893 2892 2881 2891 2895 2876 2889 2919 2862 2913 2894 2895 2910 2971 2880 2917 2942 2877 2835 2872

Tree=0
num_leaves=31
num_cat=0
split_feature=3 1524 1443 785 192 770 1136 1517 1070 286 1219 322 1348 904 1156 486 237 1461 425 421 40 940 1219 427 418 1059 1136 160 608 127
split_gain=3.11121e+07 1.00739e+07 7.34834e+06 2.97518e+06 2.68097e+06 1.07217e+06 952488 738518 365515 352235 171808 123940 119626 112077 92728.7 77377.1 58654.3 51347.8 42040.3 41735.4 28698.7 26492.3 17520.4 16994 16065 14771.5 13822.9 13816.8 11851.2 10794.7
threshold=0.10628544911742212 -0.10234664380550383 -0.035100681707262986 1.0000000180025095e-35 0.055900836363434799 0.13386683166027072 -3.2877582311630245 1.0000000180025095e-35 0.030221521854400638 0.095469426363706603 -3.7328811883926387 0.0070544693153351554 -0.091567866504192338 2.7908482551574711 -3.3805543184280391 1.0000000180025095e-35 0.0632428713142872 -0.1504058167338371 0.13941519707441333 -0.41952957212924952 -3.6497886180877681 -0.13396243005990979 -3.7277013063430782 0.011645786929875614 2.7022233009338383 -0.41837999224662775 -3.2825473546981807 0.15205359458923343 0.24411676079034808 -0.24343305081129071
decision_type=2 2 2 2 2 2 2 2 2 2 2 2 2 2 2 2 2 2 2 2 2 2 2 2 2 2 2 2 2 2
left_child=1 3 5 7 9 10 11 15 18 19 21 25 28 24 20 -1 -10 -11 29 -3 -9 -2 -12 -13 -7 -4 -14 -15 -8 -6
right_child=2 4 6 -5 8 13 12 14 16 17 22 23 26 27 -16 -17 -18 -19 -20 -21 -22 -23 -24 -25 -26 -27 -28 -29 -30 -31
leaf_value=60.405476492970024 25.780186728831833 31.022777889569618 23.107875689234881 83.828295472693725 34.375930282576796 23.766011091164984 21.847474622966374 40.761623000840316 35.945923410210632 28.656159488445379 26.310203290830856 22.815115054057951 22.291703110900876 24.425855368017071 47.756323538801283 53.161575222246128 38.339702322934031 27.667647572924299 32.313727044582414 29.797719795162514 43.712506906952072 25.248649536959441 26.882216714070317 22.539830137425835 24.120864980763436 23.413515827121618 22.05947544073285 24.807616864489081 21.662164677867498 33.288068978355732
leaf_weight=29 1923 496 3271 24 201 3188 5536 52 267 1019 939 4495 5188 1868 47 30 166 1085 319 633 90 1830 1246 4475 2127 3061 5066 1925 9164 167
leaf_count=29 1923 496 3271 24 201 3188 5536 52 267 1019 939 4495 5188 1868 47 30 166 1085 319 633 90 1830 1246 4475 2127 3061 5066 1925 9164 167
internal_value=23.6594 31.5383 23.0004 50.2087 30.3717 24.886 22.2957 46.9552 34.5881 28.911 25.9314 22.9169 21.9148 24.2044 43.9062 56.7221 36.8636 28.1464 33.1539 30.3359 42.6319 25.521 26.6364 22.6778 23.908 23.2556 22.177 24.6196 21.732 33.8823
internal_weight=59927 4625 55302 272 4353 15046 40256 248 1120 3233 5938 15302 24954 9108 189 59 433 2104 687 1129 142 3753 2185 8970 5315 6332 10254 3793 14700 368
internal_count=59927 4625 55302 272 4353 15046 40256 248 1120 3233 5938 15302 24954 9108 189 59 433 2104 687 1129 142 3753 2185 8970 5315 6332 10254 3793 14700 368
is_linear=0
shrinkage=1


Tree=1
num_leaves=31
num_cat=0
split_feature=41 237 209 113 20 623 322 69 130 1130 1524 528 1241 427 861 1156 698 618 1021 639 529 41 1081 375 780 614 374 1435 1509 1459
split_gain=2.521e+07 7.87466e+06 6.37356e+06 2.25916e+06 2.23108e+06 911134 862675 516437 333089 292812 135406 116850 112162 106525 73390.7 47979.2 46217.6 45671 45173.5 34866.7 20645 18371.3 15338.5 13644.1 13614.4 13162.2 11715 9298.72 7085.64 6326.53
threshold=1.1895202398300173 0.11414164677262308 0.12903922796249392 2.1190464496612553 -2.9828646183013912 0.15376280248165133 0.016026891767978672 1.0000000180025095e-35 0.021565393544733528 -0.069007273763418184 0.07023958116769792 -0.72128406167030323 -2.5015884637832637 0.0031743157887831335 3.3177057504653935 -3.3805543184280391 1.0000000180025095e-35 -0.016399131156504151 0.30336466431617742 2.2795577049255376 2.350161194801331 1.1252651810646059 0.19036464393138888 -0.14223419874906537 2.0159064531326298 1.7615805268287661 -0.16412058472633359 0.11915061622858049 -0.37493115663528437 1.0000000180025095e-35
decision_type=2 2 2 2 2 2 2 2 2 2 2 2 2 2 2 2 2 2 2 2 2 2 2 2 2 2 2 2 2 2
left_child=2 3 5 8 7 10 13 14 19 18 22 23 20 25 -3 -9 -11 -10 -5 -2 -7 -12 -1 -8 -15 -4 -13 -14 -19 -17
right_child=1 4 6 9 -6 12 11 15 17 16 21 26 27 24 -16 29 -18 28 -20 -21 -22 -23 -24 -25 -26 -27 -28 -29 -30 -31
leaf_value=3.2830550726600318 6.0370870089788236 34.460969426081732 -0.39698367586031263 12.317455878309026 57.745640258789059 0.18007393463999224 -1.3935862142443753 17.96825472370962 3.9290581839948278 10.412984542846679 1.6248149423509315 -1.7928982986517312 0.95996306712266333 -0.94945784463863658 27.403160095214844 20.801329379611545 8.7323876531918838 5.2009982765771881 14.859509185382301 7.2071054294261536 0.55695198473922281 2.0974340949375274 2.7064379959634839 -1.1663211595669067 -0.69958286267730818 -0.098912058759901611 -1.6113225767983217 1.3045279510518319 4.6406767952852448 23.058280082370928
leaf_weight=690 556 26 3863 186 20 3019 6229 89 1107 300 1604 9719 2141 4314 34 27 360 397 112 470 2803 1688 1392 4587 4409 2403 5601 1235 523 23
leaf_count=690 556 26 3863 186 20 3019 6229 89 1107 300 1604 9719 2141 4314 34 27 360 397 112 470 2803 1688 1392 4587 4409 2403 5601 1235 523 23
internal_value=-1.01655e-08 7.44253 -0.565235 6.43435 25.9076 1.23185 -1.202 22.7078 5.10491 10.6711 2.26635 -1.54885 0.627436 -0.597215 30.4615 19.3608 9.4963 4.36178 13.2729 6.57306 0.361522 1.86715 2.89754 -1.2972 -0.82316 -0.282674 -1.72651 1.08601 4.88247 21.8395
internal_weight=59927 4230 55697 4011 219 14572 41125 199 3053 958 5374 26136 9198 14989 60 139 660 2027 298 1026 5822 3292 2082 10816 8723 6266 15320 3376 920 50
internal_count=59927 4230 55697 4011 219 14572 41125 199 3053 958 5374 26136 9198 14989 60 139 660 2027 298 1026 5822 3292 2082 10816 8723 6266 15320 3376 920 50
is_linear=0
shrinkage=0.1


Tree=2
num_leaves=31
num_cat=0
split_feature=3 326 864 33 698 786 580 1517 623 796 608 1451 1185 1443 1105 501 1063 948 827 253 850 623 1059 701 841 839 139 1459 405 1388
split_gain=2.04242e+07 6.33948e+06 5.23311e+06 1.9937e+06 1.59069e+06 738222 721285 516167 215094 207071 102449 100359 98351.2 89864.8 61118.2 56706.6 33388.8 27249.2 25660.6 24785.7 14739.1 13963.5 13459 11355 10867.6 10836 10696.7 10453.5 10220.6 9031.77
threshold=0.1012006774544716 -0.073719769716262804 -0.13638134300708768 2.7718727588653569 0.024512772448360923 -0.48167830705642695 0.19448677450418475 1.0000000180025095e-35 0.067812498658895506 3.978044986724854 0.24091799557209018 -0.14477953314781186 -1.8498248457908628 -0.028133068233728405 1.0000000180025095e-35 0.31628283858299261 0.11629208177328111 -3.8805202245712276 2.7927480936050419 2.5950155258178715 0.12263556197285654 0.14776171743869784 -0.42617715895175928 0.018570957705378536 0.099981203675270094 -0.13785335421562192 0.20139523595571521 1.0000000180025095e-35 -4.0074181556701651 0.044326366856694228
decision_type=2 2 2 2 2 2 2 2 2 2 2 2 2 2 2 2 2 2 2 2 2 2 2 2 2 2 2 2 2 2
left_child=1 3 5 -1 8 13 12 14 17 18 23 20 24 29 -5 28 -10 -3 -6 -11 -8 -14 -15 -7 -4 -12 -13 -17 -9 -2
right_child=2 4 6 7 9 10 11 15 16 19 25 26 21 22 -16 27 -18 -19 -20 -21 -22 -23 -24 -25 -26 -27 -28 -29 -30 -31
leaf_value=52.16594512939453 -0.061742009541451738 10.529902142676239 2.9265166928574922 24.655611478365387 5.2861572415400779 -1.2452022864094914 0.52157264847911511 13.953800834097514 7.4560298311413167 3.4955518239653198 -1.634781711374802 1.2432227271910852 2.0431825968579655 -0.81012889927025533 31.069441858927412 18.013396523215555 8.8465778597655884 12.407486567221397 6.3161790868454188 4.2398402205508026 0.19522243921581942 1.5965786228577297 -0.56503727305213336 -1.0404712626528383 2.455289649112844 -1.4688410955555256 0.89381278174782186 20.68310753215443 15.931769339243571 -0.31254522631325043
leaf_weight=20 2624 214 876 39 702 5815 2744 41 361 858 7585 1444 1096 5115 24 44 331 121 369 935 2792 1938 3987 5072 1109 8178 2228 22 72 3171
leaf_count=20 2624 214 876 39 702 5815 2744 41 361 858 7585 1444 1096 5115 24 44 331 121 369 935 2792 1938 3987 5072 1109 8178 2228 22 72 3171
internal_value=-5.44234e-10 6.76545 -0.503763 21.822 5.75162 -1.07059 1.15154 19.3142 9.12809 4.54085 -1.38575 0.625856 2.11597 -0.506794 27.099 16.5744 8.12116 11.2081 5.64104 3.88368 0.356983 1.75791 -0.70277 -1.14982 2.66325 -1.54869 1.03122 18.9033 15.2141 -0.19898
internal_weight=59927 4153 55774 262 3891 41547 14227 242 1027 2864 26650 9208 5019 14897 63 179 692 335 1071 1793 5536 3034 9102 10887 1985 15763 3672 66 113 5795
internal_count=59927 4153 55774 262 3891 41547 14227 242 1027 2864 26650 9208 5019 14897 63 179 692 335 1071 1793 5536 3034 9102 10887 1985 15763 3672 66 113 5795
is_linear=0
shrinkage=0.1


Tree=3
num_leaves=31
num_cat=0
split_feature=1443 1524 1029 785 639 674 573 1517 618 1146 1224 1219 418 375 501 97 7 841 46 796 1459 249 227 1534 748 651 46 1443 698 405
split_gain=1.65476e+07 5.30837e+06 3.9906e+06 1.68196e+06 1.38689e+06 568809 534560 365401 202262 168340 81648.2 80864.9 73038.3 57229.2 50827.6 35418.8 29523.3 24974.6 24349 22062 11933.6 11858.5 11808.5 9753.55 9594.19 9398.15 9085.58 8336.3 6815.1 6325.94
threshold=-0.0917326584458351 -0.10234664380550383 0.17901895940303805 1.0000000180025095e-35 2.2957192659378056 0.034589881077408798 0.2608755379915238 1.0000000180025095e-35 0.097733516246080412 2.6708033084869389 0.11545835807919504 -3.7328811883926387 2.7144161462783818 -0.15141758322715757 0.30643638968467718 1.0000000180025095e-35 0.097265336662530913 0.062932886183261885 0.057146925479173667 4.0076310634613046 1.0000000180025095e-35 0.013038511853665115 0.069801323115825667 0.50903233885765087 0.092927500605583205 -0.37678332626819605 -0.11803888902068137 -0.013137631118297575 1.0000000180025095e-35 -4.0074181556701651
decision_type=2 2 2 2 2 2 2 2 2 2 2 2 2 2 2 2 2 2 2 2 2 2 2 2 2 2 2 2 2 2
left_child=1 3 5 7 9 11 10 15 16 19 21 24 25 -8 29 -1 -6 -11 -10 -3 -16 -4 -13 -14 -2 -7 -12 -15 -18 -9
right_child=2 4 6 -5 8 12 13 14 18 17 26 22 23 27 20 -17 28 -19 -20 -21 -22 -23 -24 -25 -26 -27 -28 -29 -30 -31
leaf_value=26.204118041992189 1.6015486316483569 3.6225238151832566 -0.15088123607669923 44.649356969197591 6.3076200565047884 0.35635923070167141 -1.4203714895726591 12.514934307921166 9.1599696373117379 5.2924814834211871 -0.84538427581539843 2.0161882087025802 0.62178542528545522 -1.0255669063918957 15.903869948848602 21.303132471544991 8.0725699424743649 4.3703731652119719 10.78507385503233 2.9427640069422942 18.614796967939899 -0.40817151657959472 2.4798906084703503 0.93643604479551201 1.2505723259639485 0.091961608231272779 -0.64626283231281068 -1.2020354606909409 7.2367782147407542 14.06794733118128
leaf_weight=30 1480 946 3221 24 345 2633 13512 51 232 548 4451 1404 1870 5533 62 29 160 633 153 964 22 4036 902 2082 1644 2747 4723 5186 250 54
leaf_count=30 1480 946 3221 24 345 2633 13512 51 232 548 4451 1404 1870 5533 62 29 160 633 153 964 22 4036 902 2082 1644 2747 4723 5186 250 54
internal_value=8.17429e-10 5.82981 -0.473651 19.3713 4.95926 0.934638 -0.984918 16.925 7.94049 3.85974 -0.544609 1.7484 0.461135 -1.28349 14.7804 23.7952 6.98932 4.79824 9.80579 3.27944 16.6139 -0.293974 2.19757 0.78755 1.41685 0.221359 -0.742872 -1.11094 7.56294 13.3136
internal_weight=59927 4503 55424 272 4231 14762 40662 248 1140 3091 16431 5430 9332 24231 189 59 755 1181 385 1910 84 7257 2306 3952 3124 5380 9174 10719 410 105
internal_count=59927 4503 55424 272 4231 14762 40662 248 1140 3091 16431 5430 9332 24231 189 59 755 1181 385 1910 84 7257 2306 3952 3124 5380 9174 10719 410 105
is_linear=0
shrinkage=0.1


Tree=4
num_leaves=31
num_cat=0
split_feature=838 326 209 20 1129 619 940 69 130 623 374 1219 634 1219 1094 764 286 900 1179 1377 839 921 623 405 1451 139 712 619 553 1399
split_gain=1.34111e+07 4.13944e+06 3.46242e+06 1.38435e+06 1.03389e+06 518390 452206 321837 145787 129864 73075.9 69673.4 62159.7 55425.1 41805.2 31755.2 21064.7 19339.6 18948 13657.6 10736.7 9620.07 8459.91 8400.01 7692.75 7412.78 7213.9 6599.89 5605.02 4306.35
threshold=0.012301677372306587 -0.073719769716262804 0.12767173349857333 -2.9828646183013912 0.080081783235073103 -0.084387749433517442 -0.13396243005990979 1.0000000180025095e-35 0.021565393544733528 0.067812498658895506 -0.16144213825464246 -3.7513370513916011 2.6620866060256962 -3.7277013063430782 -3.5373436212539668 -3.0528367757797237 0.1017463691532612 0.0078033814206719407 -0.26421399414539332 1.3509978652000429 -0.1366869509220123 0.01569372229278088 0.14776171743869784 -4.0074181556701651 -0.16383994370698926 0.20139523595571521 -3.8782516717910762 -0.087878897786140428 0.071938447654247298 -3.3437499999999996
decision_type=2 2 2 2 2 2 2 2 2 2 2 2 2 2 2 2 2 2 2 2 2 2 2 2 2 2 2 2 2 2
left_child=2 3 6 7 9 10 13 15 19 18 20 21 24 22 23 -2 -10 -11 -3 -6 -4 -8 -1 -9 -7 -13 -14 -12 -15 -16
right_child=1 4 5 -5 8 12 11 14 16 17 27 25 26 28 29 -17 -18 -19 -20 -21 -22 -23 -24 -25 -26 -27 -28 -29 -30 -31
leaf_value=1.6857042437385816 19.120652071634929 10.200120293753487 -1.3032798962819128 42.961641998291014 4.4108985760038903 -0.63905908487416263 0.48799660829346092 11.306928048482757 3.6155909077728854 6.1510882678059486 -0.97973489948855752 1.0359450058731638 -0.23451663982841967 2.425392458311717 14.715927323051122 23.816631020439999 2.9406368690301488 7.2491589432974726 8.5788860279580827 5.1748747870584877 -1.1361617143754603 0.21857951920052054 1.3414581789169773 13.049632779289695 -0.44976084538996858 0.75359859537109175 -0.016902162473263368 -0.81956073888474923 2.064747908918108 16.498420261614253
leaf_weight=1363 24 105 10890 20 558 4771 2323 41 790 346 5654 1883 3469 750 23 36 1115 299 230 403 5942 3086 1499 85 3903 1837 2716 4720 1013 33
leaf_count=1363 24 105 10890 20 558 4771 2323 41 790 346 5654 1883 3469 750 23 36 1115 299 230 403 5942 3086 1499 85 3903 1837 2716 4720 1013 33
internal_value=1.47587e-09 5.51438 -0.405831 17.6765 4.68586 -0.856183 0.97152 15.5868 3.7271 7.48973 -1.11562 0.563391 -0.38117 1.7771 13.493 21.9382 3.22054 6.66012 9.08703 4.73128 -1.24428 0.334286 1.5054 12.4826 -0.553881 0.896517 -0.138956 -0.906858 2.21817 15.7663
internal_weight=59927 4108 55819 262 3846 42065 13754 242 2866 980 27206 9129 14859 4625 182 60 1905 645 335 961 16832 5409 2862 126 8674 3720 6185 10374 1763 56
internal_count=59927 4108 55819 262 3846 42065 13754 242 2866 980 27206 9129 14859 4625 182 60 1905 645 335 961 16832 5409 2862 126 8674 3720 6185 10374 1763 56
is_linear=0
shrinkage=0.1


Tree=5
num_leaves=31
num_cat=0
split_feature=887 841 623 785 1129 1046 724 1517 130 618 109 1231 366 1283 501 1403 618 842 618 127 700 669 374 70 427 1534 405 1131 880 1459
split_gain=1.08718e+07 3.36376e+06 2.78784e+06 1.15109e+06 820365 397319 381773 228199 119595 98372.1 60905.1 52878.9 48083.6 47317.9 34204 24738.3 17711.6 17346.5 11561.8 10962.8 8434.68 7644.86 6904.84 6875.05 6797.66 6733.9 6053.5 5749.24 5726.84 5500.48
threshold=0.035602053627371795 -0.042840423062443726 0.16750009357929233 1.0000000180025095e-35 0.080081783235073103 0.043986493721604354 0.12669679522514346 1.0000000180025095e-35 0.021565393544733528 0.097733516246080412 -0.10836538299918173 -3.5225609540939327 -0.063107576221227632 0.052161522209644325 0.31628283858299261 1.0000000180025095e-35 -0.016399131156504151 0.6512163281440736 0.032256096601486213 -0.24331292510032651 1.8843429684638979 -3.2070502042770381 -0.15954805910587308 -1.9753592014312742 0.010386011563241484 0.46574386954307562 -4.0074181556701651 -0.19314586371183393 0.33738103508949285 1.0000000180025095e-35
decision_type=2 2 2 2 2 2 2 2 2 2 2 2 2 2 2 2 2 2 2 2 2 2 2 2 2 2 2 2 2 2
left_child=1 3 5 7 9 10 11 15 18 19 23 24 21 22 26 -1 -10 -11 -6 -3 -12 -7 -8 -2 -4 -13 -9 -15 -19 -16
right_child=2 4 6 -5 8 12 13 14 16 17 20 25 -14 27 29 -17 -18 28 -20 -21 -22 -23 -24 -25 -26 -27 -28 -29 -30 -31
leaf_value=21.572758992513023 1.3640376908794727 6.3505854874631789 -0.46265150776054659 36.60619360605876 4.0284290618882208 0.80995078400136478 -0.94585815772998372 10.15695374806722 2.6053580857615168 7.2570120209678608 1.7229384450201808 -0.27570132642677614 0.21218065580803003 -1.2275156016281648 13.166899160905317 17.404340209960939 3.2111767810000025 8.1979182746466694 4.7818761150177833 5.4830571046308698 2.1058399358973658 0.53872851145665779 -0.78935598214709324 1.0643523229738363 -0.63547620098356339 -0.072935324552462918 11.580935796101889 -1.0958594783661801 9.319314478484678 15.103474960002032
leaf_weight=24 1530 274 4366 24 668 2075 5816 51 1015 187 1300 3498 4921 5213 44 35 920 127 293 311 1032 2082 5471 1532 4754 3080 72 9119 71 22
leaf_count=24 1530 274 4366 24 668 2075 5816 51 1015 187 1300 3498 4921 5213 44 35 920 127 293 311 1032 2082 5471 1532 4754 3080 72 9119 71 22
internal_value=5.66687e-10 4.94559 -0.366826 15.6945 4.18933 0.8276 -0.785195 13.6708 3.34627 6.70635 1.50734 -0.396868 0.423708 -1.02314 11.9759 19.1 2.8934 7.94771 4.25815 5.88939 1.89239 0.674111 -0.869999 1.2141 -0.55274 -0.180761 10.9905 -1.14375 8.60004 13.8124
internal_weight=59927 4138 55789 272 3866 14472 41317 248 2896 970 5394 15698 9078 25619 189 59 1935 385 961 585 2332 4157 11287 3062 9120 6578 123 14332 198 66
internal_count=59927 4138 55789 272 3866 14472 41317 248 2896 970 5394 15698 9078 25619 189 59 1935 385 961 585 2332 4157 11287 3062 9120 6578 123 14332 198 66
is_linear=0
shrinkage=0.1


Tree=6
num_leaves=31
num_cat=0
split_feature=1313 272 209 20 113 633 940 69 46 1524 1303 752 46 1520 1526 764 253 698 623 1461 880 1399 831 623 852 720 41 3 509 1451
split_gain=8.80696e+06 2.75008e+06 2.22416e+06 985886 680268 340452 280814 208511 114717 68497.8 48351.4 45564.9 40433.3 33034.3 30998.1 17439.2 16115.8 13150.8 12795.7 8037.98 7422.59 7179.97 6822.91 5728.84 5418.58 4977.26 4455.68 4045.81 3837.08 3828.27
